SVM-light Version V6.02
0 # kernel type
3 # kernel parameter -d 
1 # kernel parameter -g 
1 # kernel parameter -s 
1 # kernel parameter -r 
empty# kernel parameter -u 
187 # highest feature index 
13338 # number of training documents 
577 # number of support vectors plus 1 
-1.0002651 # threshold b, each following line is a SV (starting with alpha*y)
-5.1233413558476783578043978195637 21:0.069229901 31:0.111878 41:0.00194798 84:0.0754622 94:0.107107 104:0.000486801 127:0 137:0.039728001 147:0.029405899 157:0.036416501 167:0.0775057 177:0 187:0 #
5.1233413558476783578043978195637 21:0.00089996302 31:0.68286198 94:0.67878997 104:0.0049712998 167:0.66806 177:0.0157021 #
5.1233413558476783578043978195637 #
5.1233413558476783578043978195637 21:0.0025985399 31:1.1108201 94:1.10534 104:0.0080703003 167:1.08692 177:0.0264898 #
5.1233413558476783578043978195637 21:0.00102418 31:0.89158398 94:0.88611501 104:0.0064930199 167:0.87223202 177:0.020376099 #
5.1233413558476783578043978195637 21:0.0139699 31:0.080704398 84:0.072651803 94:0.0220224 104:0 127:4.7501198e-21 137:8.4590202e-09 147:0.0025853401 157:0.031344701 167:0.0607442 177:7.7379402e-21 #
-5.1233413558476783578043978195637 21:0.00111947 31:0.26193199 41:0.0022557499 84:0.0089500397 94:0.25412399 104:0.00223335 127:0 137:0 147:0.0055973199 157:0.00111946 167:0.258591 177:2.84322e-28 187:0 #
-5.1233413558476783578043978195637 31:0.62329102 84:0.5 94:0.123291 167:0.62329102 #
-5.1233413558476783578043978195637 21:0.0680793 31:0.10853 41:0.00075956702 84:0.063619003 94:0.112895 104:0.00085451797 127:0 137:0.028960699 147:0.030574501 157:0.0356065 167:0.082226798 177:0 187:0 #
-5.1233413558476783578043978195637 21:0.0694144 31:0.112176 41:0.0019531799 84:0.075663403 94:0.107392 104:0.00048809801 127:0 137:0.0398339 147:0.029484199 157:0.0365135 167:0.077712201 177:0 187:0 #
-5.1233413558476783578043978195637 21:0.161395 31:0.54367697 41:0.0129475 84:0.51552898 94:0.098935202 104:0.103555 127:0.055388 137:0.084861703 147:0.213396 157:0.116119 167:0.23726299 177:0.0071703899 187:0.0038210701 #
5.1233413558476783578043978195637 21:0.0093764104 31:0.054147299 84:0.048747599 94:0.0147761 104:0 127:8.17385e-22 137:2.9720799e-09 147:0.00173183 157:0.021031201 167:0.0407607 177:1.33153e-21 #
-5.1233413558476783578043978195637 21:0.0113463 31:1.30615 41:0.022740999 84:0.0284924 94:1.31173 104:1.21169e-05 127:0 137:0 147:0.028408101 157:0.0056671398 167:1.30616 177:2.4220501e-10 187:0 #
5.1233413558476783578043978195637 #
5.1233413558476783578043978195637 21:0.0094672404 31:0.054670401 84:0.049218699 94:0.0149189 104:0 127:6.5684098e-22 137:2.78144e-09 147:0.00174836 157:0.021234401 167:0.041154802 177:1.07001e-21 #
5.1233413558476783578043978195637 21:0.0098311501 31:0.056778401 84:0.051115502 94:0.015494 104:0 127:1.18873e-21 137:4.1111101e-09 147:0.00181666 157:0.022052901 167:0.042739999 177:1.9364599e-21 #
-5.1233413558476783578043978195637 21:0.00129742 31:0.31266201 41:0.0013048 84:0.0091113197 94:0.306153 104:5.5784199e-10 127:0 137:0 147:3.69357e-05 157:0.00774755 167:0.30748001 177:5.8947802e-17 187:0 #
-5.1233413558476783578043978195637 21:0.00133554 31:0.32184899 41:0.00134348 84:0.0093803704 94:0.315148 104:6.4578698e-10 127:0 137:0 147:3.9689199e-05 157:0.0079735499 167:0.316515 177:2.01882e-12 187:0 #
5.1233413558476783578043978195637 21:0.0097519299 31:0.056313898 84:0.0506984 94:0.0153674 104:0 127:6.6598e-22 137:2.7354501e-09 147:0.00180085 157:0.0218728 167:0.042392202 177:1.08489e-21 #
-5.1233413558476783578043978195637 #
5.1233413558476783578043978195637 21:0.0098605203 31:0.056945901 84:0.0512667 94:0.0155397 104:0 127:9.77294e-22 137:3.6418399e-09 147:0.0018217301 157:0.022118 167:0.042866599 177:1.59203e-21 #
5.1233413558476783578043978195637 21:0.0099504301 31:0.057465099 84:0.051734101 94:0.015681401 104:0 127:9.8743504e-22 137:3.61176e-09 147:0.0018383299 157:0.022319701 167:0.043257501 177:1.60855e-21 #
-5.1233413558476783578043978195637 21:0.139594 31:0.46271899 41:0.032229599 84:0.305801 94:0.32874101 104:1.31953e-06 127:0 137:1.3671699e-23 147:2.4924199e-07 157:0.304764 167:0.292449 177:0.0373297 187:0 #
-5.1233413558476783578043978195637 21:0.00210025 31:0.241963 41:0.00421642 84:0.00529237 94:0.242983 104:3.9965898e-06 127:0 137:0 147:0.0052645602 157:0.00104813 167:0.24196699 177:6.88644e-11 187:0 #
-5.1233413558476783578043978195637 21:0.0063764602 31:0.73446101 41:0.0127958 84:0.0160536 94:0.73756897 104:1.07639e-05 127:0 137:0 147:0.0159787 157:0.0031828701 167:0.73447198 177:1.8096e-10 187:0 #
0.066797893539387365180459710245486 21:0.00122763 31:1.31585 94:1.30749 104:0.00958688 167:1.28724 177:0.029835399 #
5.1233413558476783578043978195637 21:0.0129456 31:0.074797101 84:0.067332499 94:0.020410299 104:0 127:9.3815998e-21 137:1.47996e-08 147:0.00239749 157:0.029049899 167:0.056295302 177:1.5282499e-20 #
5.1233413558476783578043978195637 21:0.0099759204 31:0.057611998 84:0.051866401 94:0.0157215 104:0 127:9.67582e-22 137:3.5668e-09 147:0.0018429999 157:0.0223768 167:0.043368101 177:1.57621e-21 #
5.1233413558476783578043978195637 21:0.258338 31:3.66906 84:1.5312099 94:2.3961899 104:4.0395799e-27 127:2.7396301e-34 137:0.55659699 147:1.3026201 157:0.55668998 167:1.51149 177:7.3917502e-33 #
5.1233413558476783578043978195637 21:0.010226 31:0.059060901 84:0.0531701 94:0.0161168 104:0 127:1.45187e-21 137:4.66799e-09 147:0.0018899899 157:0.0229393 167:0.0444576 177:2.3651099e-21 #
-5.1233413558476783578043978195637 21:0.0057426901 31:0.66142499 41:0.0115227 84:0.0144545 94:0.66422701 104:9.3582703e-06 127:0 137:0 147:0.0143893 157:0.00286668 167:0.66143399 177:1.59476e-10 187:0 #
-5.1233413558476783578043978195637 21:0.00130557 31:0.31462699 41:0.00131309 84:0.0091689201 94:0.30807701 104:5.75193e-10 127:0 137:0 147:3.7612299e-05 157:0.0077958 167:0.309412 177:6.4256402e-17 187:0 #
-5.1233413558476783578043978195637 31:0.62329102 84:0.123291 94:0.5 167:0.62329102 #
-5.1233413558476783578043978195637 21:0.00245948 31:0.28333399 41:0.0049370602 84:0.0061961301 94:0.284529 104:4.5399702e-06 127:0 137:0 147:0.0061645401 157:0.00122748 167:0.28333801 177:7.5791103e-11 187:0 #
0.0009285772184546847718422668549465 21:0.0073587499 31:0.104574 84:0.043640599 94:0.068291798 104:1.33209e-33 127:1.2437505e-40 137:0.0158659 147:0.0371264 157:0.0158702 167:0.04307 177:3.806361e-40 #
5.1233413558476783578043978195637 21:0.0102418 31:0.059156701 84:0.0532557 94:0.0161428 104:0 127:2.2252499e-21 137:6.2015202e-09 147:0.0018936601 157:0.0229763 167:0.044528499 177:3.6249498e-21 #
-5.1233413558476783578043978195637 #
5.1233413558476783578043978195637 21:0.0102635 31:0.059281599 84:0.0533682 94:0.0161769 104:0 127:2.15511e-21 137:5.96587e-09 147:0.0018976 157:0.023024799 167:0.0446226 177:3.5106898e-21 #
-5.1233413558476783578043978195637 21:0.0015929 31:0.38707501 41:4.7730902e-25 84:0.0095921904 94:0.37749499 104:0.00158126 127:0 137:0 147:0 157:0.0095574101 167:0.379087 177:2.32814e-05 187:0 #
5.1233413558476783578043978195637 21:0.0102811 31:0.059385501 84:0.053461399 94:0.016205201 104:0 127:2.63722e-21 137:6.9204602e-09 147:0.0019012 157:0.023065099 167:0.044700298 177:4.2960401e-21 #
5.1233413558476783578043978195637 21:0.0103083 31:0.059533201 84:0.0535958 94:0.016245799 104:0 127:1.12652e-21 137:3.8488701e-09 147:0.00190465 157:0.023122899 167:0.044814002 177:1.83512e-21 #
5.1233413558476783578043978195637 21:0.0103201 31:0.059604902 84:0.0536598 94:0.0162652 104:0 127:1.5285e-21 137:4.7314299e-09 147:0.00190746 157:0.0231506 167:0.044867001 177:2.4899401e-21 #
5.1233413558476783578043978195637 21:0.011261 31:0.065032303 84:0.0585468 94:0.0177464 127:1.06288e-21 137:3.49065e-09 147:0.0020802401 157:0.025258901 167:0.048954099 177:1.7314601e-21 #
5.1233413558476783578043978195637 21:0.0104051 31:0.060085502 84:0.054094002 94:0.016396601 104:0 127:7.3904099e-22 137:2.80477e-09 147:0.00192145 157:0.0233378 167:0.045231398 177:1.20391e-21 #
5.1233413558476783578043978195637 21:0.00158126 31:1.38748 94:1.37895 104:0.0101046 167:1.35736 177:0.0316975 #
-5.1233413558476783578043978195637 #
5.1233413558476783578043978195637 21:0.0104307 31:0.060252801 84:0.054241698 94:0.0164418 104:0 127:3.86245e-21 137:8.7046796e-09 147:0.00192945 157:0.023401801 167:0.045352299 177:6.2919299e-21 #
5.1233413558476783578043978195637 21:0.0104655 31:0.0604547 84:0.054423399 94:0.0164969 104:0 127:4.2153201e-21 137:9.3011003e-09 147:0.00193602 157:0.023480199 167:0.045504 177:6.8667599e-21 #
-5.1233413558476783578043978195637 21:0.00113909 31:0.266523 41:0.0022956401 84:0.0091067897 94:0.258578 104:0.0022723801 127:0 137:0 147:0.0056954301 157:0.00113909 167:0.26312301 177:1.24956e-23 187:0 #
5.1233413558476783578043978195637 21:0.00181278 31:1.47832 94:1.46937 104:0.0107643 167:1.44626 177:0.0338815 #
5.1233413558476783578043978195637 21:0.257662 31:0.51310599 94:0.77076799 104:0 167:0.54523098 177:0.225537 #
-5.1233413558476783578043978195637 21:0.0030050201 31:0.229168 41:0.0030253499 84:0.00403564 94:0.231157 104:5.1286702e-06 127:0 137:0 147:0.00102549 157:0.0050049699 167:0.229168 177:3.12932e-38 187:0 #
-5.1233413558476783578043978195637 21:0.14004099 31:0.47602201 41:0.0252138 84:0.43121499 94:0.099784203 104:0.110277 127:0.042766701 137:0.082121901 147:0.176882 157:0.129458 167:0.209039 177:0.00100774 187:1.25752e-06 #
-5.1233413558476783578043978195637 21:0.00206844 31:0.23831201 41:0.0041530901 84:0.0052135899 94:0.239316 104:4.0669202e-06 127:0 137:0 147:0.0051852898 157:0.0010321999 167:0.238317 177:6.9441397e-11 187:0 #
-5.1233413558476783578043978195637 21:0.0421189 31:0.33439201 84:0.0337024 94:0.33733201 104:0.0054769199 127:0.00078084099 137:0.034652501 147:0.00120859 167:0.33986801 177:9.7195596e-07 #
-5.1233413558476783578043978195637 21:0.038323998 31:0.151015 41:2.2967599e-06 84:0.041877098 94:0.147462 104:2.29546e-06 127:0 137:0.00565563 147:0.046751 157:0.028801899 167:0.108133 177:0 187:0 #
-5.1233413558476783578043978195637 21:0.0064231702 31:0.73965198 41:0.0128826 84:0.0161529 94:0.74279499 104:9.0969097e-06 127:0 137:0 147:0.0160896 157:0.00320705 167:0.73966098 177:1.6128e-10 187:0 #
5.1233413558476783578043978195637 21:0.0104738 31:0.060503799 84:0.054467302 94:0.0165102 104:0 127:4.80814e-21 137:1.00372e-08 147:0.00193776 157:0.0234992 167:0.045540601 177:7.8324496e-21 #
5.1233413558476783578043978195637 21:0.0105114 31:0.060704499 84:0.0546505 94:0.016565399 104:0 127:1.03165e-21 137:3.59703e-09 147:0.00194194 157:0.023577901 167:0.045696001 177:1.68058e-21 #
-5.1233413558476783578043978195637 21:0.067954697 31:0.108329 41:0.00075838802 84:0.063501902 94:0.112687 104:0.00085289299 127:0 137:0.0289088 147:0.030518301 157:0.035540599 167:0.0820738 177:0 187:0 #
5.1233413558476783578043978195637 21:0.0010721399 31:0.98284298 94:0.97675699 104:0.0071584401 167:0.961501 177:0.022414399 #
-5.1233413558476783578043978195637 21:0.0105047 31:1.21026 41:0.021090699 84:0.026474901 94:1.21536 104:2.04072e-05 127:0 137:0 147:0.0263329 157:0.0052421899 167:1.2102799 177:3.3906999e-10 187:0 #
5.1233413558476783578043978195637 21:0.0105497 31:0.060932498 84:0.054854799 94:0.0166275 104:0 127:1.7031001e-21 137:5.1053002e-09 147:0.00195013 157:0.023666199 167:0.045865901 177:2.77437e-21 #
-5.1233413558476783578043978195637 21:0.00301114 31:0.229627 41:0.00303133 84:0.0040435898 94:0.231621 104:5.0922199e-06 127:0 137:0 147:0.00102736 157:0.0050151902 167:0.229627 177:2.72148e-38 187:0 #
-5.1233413558476783578043978195637 21:0.068979397 31:0.26941901 41:0.0022834099 84:0.100712 94:0.23997 104:7.8873598e-26 127:0.00018662801 137:0.029059 147:0.092529498 157:0.084867097 167:0.133691 177:0.000282819 187:6.5771797e-05 #
-5.1233413558476783578043978195637 31:2.8858399 94:2.8858399 167:2.8858399 #
-5.1233413558476783578043978195637 21:0.0011503 31:0.26916799 41:0.0023006501 84:0.00918948 94:0.26112199 104:0.00230695 127:0 137:0 147:0.0057514501 157:0.00115029 167:0.265717 177:1.8597899e-14 187:0 #
5.1233413558476783578043978195637 21:0.0024636299 31:0.62565798 94:0.62358999 104:0.0045308 167:0.61235899 177:0.0157627 #
5.1233413558476783578043978195637 21:0.0106532 31:0.061531302 84:0.0553937 94:0.0167908 104:0 127:1.8839501e-21 137:5.4203499e-09 147:0.0019694499 157:0.0238987 167:0.0463164 177:3.0689699e-21 #
5.1233413558476783578043978195637 21:0.0115299 31:0.066589199 84:0.0599479 94:0.018171201 127:1.36617e-21 137:4.0821702e-09 147:0.0021305501 157:0.0258634 167:0.0501251 177:2.2255101e-21 #
-5.1233413558476783578043978195637 21:0.067961998 31:0.106638 41:0.00112654 84:0.067211702 94:0.107858 104:0.00065709802 127:0 137:0.033135802 147:0.031258799 157:0.034451202 167:0.076880999 177:0 187:0 #
-5.1233413558476783578043978195637 21:0.0672023 31:0.107132 41:0.00074978202 84:0.062799498 94:0.111441 104:0.00084350997 127:0 137:0.028587701 147:0.0301806 157:0.035147902 167:0.081167601 177:0 187:0 #
5.1233413558476783578043978195637 21:0.0107695 31:0.062197 84:0.0559939 94:0.0169727 104:0 127:1.20365e-21 137:3.8833599e-09 147:0.0019899099 157:0.0241575 167:0.046819098 177:1.96076e-21 #
5.1233413558476783578043978195637 21:0.0107887 31:0.062304702 84:0.056091301 94:0.0170021 104:0 127:1.10348e-21 137:3.3443499e-09 147:0.0019929199 157:0.024199501 167:0.046900999 177:1.79758e-21 #
-5.1233413558476783578043978195637 21:0.0690457 31:0.111581 41:0.0019428 84:0.075261503 94:0.106822 104:0.000485506 127:0 137:0.039622299 147:0.029327599 157:0.036319599 167:0.077299498 177:0 187:0 #
-5.1233413558476783578043978195637 21:0.00129644 31:0.31115401 41:0.0025844199 84:0.0103378 94:0.30467999 104:1.68152e-05 127:0 137:0 147:0.0064398898 157:0.00133875 167:0.30725601 177:3.44544e-10 187:0 #
5.1233413558476783578043978195637 21:0.0108539 31:0.0626783 84:0.056428101 94:0.017104199 104:0 127:8.7814401e-22 137:3.01369e-09 147:0.00200452 157:0.0243448 167:0.047182899 177:1.43051e-21 #
2.1295225582917964857188053429127e-09 21:0.0071312902 31:0.10134 84:0.042291299 94:0.066180401 104:1.21075e-33 127:1.1122807e-40 137:0.0153754 147:0.0359785 157:0.0153795 167:0.041738398 177:3.4040342e-40 #
-5.1233413558476783578043978195637 21:0.0011968 31:0.281295 41:0.003575 84:0.0095668603 94:0.27649999 104:3.1493599e-12 127:0 137:0 147:0.0059456201 157:0.00123519 167:0.27888599 177:1.9510901e-21 187:0 #
5.1233413558476783578043978195637 21:0.0110571 31:0.063860402 84:0.0574909 94:0.0174265 104:0 127:1.46098e-21 137:4.4652202e-09 147:0.0020435101 157:0.024803501 167:0.048070502 177:2.37996e-21 #
-5.1233413558476783578043978195637 21:0.00305876 31:0.23328499 41:0.0030799599 84:0.0041085202 94:0.23531 104:5.3479498e-06 127:0 137:0 147:0.00104441 157:0.0050943899 167:0.23328499 177:2.9413255e-42 187:0 #
-5.1233413558476783578043978195637 21:0.142581 31:0.484653 41:0.0256723 84:0.439035 94:0.101596 104:0.112275 127:0.043539301 137:0.083611697 147:0.18009301 157:0.131806 167:0.21282899 177:0.00102603 187:1.31074e-06 #
5.1233413558476783578043978195637 21:0.0110915 31:0.0640705 84:0.057678401 94:0.017483599 104:0 127:3.6387598e-21 137:8.2411198e-09 147:0.00205179 157:0.0248845 167:0.048225701 177:5.92755e-21 #
5.1233413558476783578043978195637 21:0.0111192 31:0.064215802 84:0.057811402 94:0.0175236 104:0 127:1.174e-21 137:3.7915902e-09 147:0.0020544 157:0.0249417 167:0.048338901 177:1.9124701e-21 #
-5.1233413558476783578043978195637 21:0.00136239 31:0.27310601 41:0.00471236 84:0.0082112299 94:0.26979601 104:0.00117299 127:0 137:0 147:0.0058718999 157:0.00116627 167:0.27214199 177:5.6278502e-26 187:0 #
5.1233413558476783578043978195637 21:0.0112618 31:0.06504 84:0.058553301 94:0.017748499 104:0 127:1.26889e-21 137:3.9583301e-09 147:0.0020808999 157:0.025261801 167:0.048959099 177:2.0670399e-21 #
-5.1233413558476783578043978195637 21:0.0020423301 31:0.235348 41:0.0041022701 84:0.0051519899 94:0.23633599 104:4.4223498e-06 127:0 137:0 147:0.0051212399 157:0.00101897 167:0.23535199 177:9.6482898e-11 187:0 #
5.1233413558476783578043978195637 21:0.0113249 31:0.065422803 84:0.0588952 94:0.0178525 104:0 127:5.1091198e-21 137:1.03378e-08 147:0.0020956199 157:0.0254096 167:0.0492425 177:8.3227399e-21 #
5.1233413558476783578043978195637 21:0.0038834 31:0.0551611 84:0.023020299 94:0.036024202 104:1.2192e-32 127:3.6753536e-40 137:0.0083698398 147:0.0195834 157:0.0083713001 167:0.02272 177:1.1251194e-39 #
5.1233413558476783578043978195637 21:0.0113311 31:0.065447599 84:0.058919098 94:0.0178595 104:0 127:2.0761199e-21 137:5.55556e-09 147:0.0020949601 157:0.025419701 167:0.049263999 177:3.38202e-21 #
5.1233413558476783578043978195637 21:0.0115301 31:0.066614702 84:0.059967201 94:0.018177601 104:0 127:9.8528197e-21 137:1.64406e-08 147:0.0021347301 157:0.025872201 167:0.0501379 177:1.60501e-20 #
-5.1233413558476783578043978195637 21:0.068183303 31:0.106621 41:0.00151113 84:0.069126301 94:0.106528 104:0.000661014 127:0 137:0.035317399 147:0.0305031 157:0.0353195 167:0.075174898 177:0 187:0 #
5.1233413558476783578043978195637 21:0.011639 31:0.067236401 84:0.060527999 94:0.018347399 104:0 127:4.3881398e-21 137:9.2272003e-09 147:0.0021535701 157:0.026114 167:0.0506078 177:7.14828e-21 #
5.1233413558476783578043978195637 21:0.0116574 31:0.067323901 84:0.060609601 94:0.018371699 127:1.27773e-21 137:3.8547099e-09 147:0.0021538499 157:0.0261489 167:0.0506786 177:2.0814401e-21 #
-5.1233413558476783578043978195637 21:0.0020453699 31:0.235705 41:0.0041086301 84:0.0051603201 94:0.23669501 104:4.4916901e-06 127:0 137:0 147:0.0051290798 157:0.00102045 167:0.23571 177:9.85899e-11 187:0 #
5.1233413558476783578043978195637 21:0.0116841 31:0.067490198 84:0.060757499 94:0.0184168 104:0 127:2.6652101e-21 137:6.5003101e-09 147:0.00216083 157:0.026212901 167:0.050800599 177:4.34164e-21 #
-5.1233413558476783578043978195637 21:0.00205062 31:0.23628999 41:0.00411843 84:0.00517161 94:0.23728301 104:4.3156801e-06 127:0 137:0 147:0.0051415898 157:0.0010231599 167:0.236294 177:8.3681902e-11 187:0 #
-5.1233413558476783578043978195637 21:0.039275099 31:0.154762 41:2.36251e-06 84:0.042916201 94:0.15112101 104:2.3611699e-06 127:0 137:0.0057959799 147:0.0479111 157:0.029516701 167:0.110816 177:3.2155001e-33 187:0 #
5.1233413558476783578043978195637 21:0.0117156 31:0.0676746 84:0.0609232 94:0.0184671 104:0 127:3.13057e-21 137:7.2419901e-09 147:0.00216702 157:0.0262844 167:0.0509388 177:5.0997098e-21 #
-5.1233413558476783578043978195637 21:0.0020560599 31:0.236893 41:0.0041284901 84:0.00518307 94:0.23789001 104:4.1100002e-06 127:0 137:0 147:0.0051544802 157:0.00102598 167:0.23689701 177:7.6969403e-11 187:0 #
5.1233413558476783578043978195637 21:0.0117641 31:0.067971401 84:0.0611878 94:0.018547701 104:0 127:1.5446401e-20 137:2.28052e-08 147:0.0021788499 157:0.026398901 167:0.051157799 177:2.51618e-20 #
-5.1233413558476783578043978195637 21:0.00206192 31:0.23762301 41:0.0041422602 84:0.0052030901 94:0.238619 104:4.6263999e-06 127:0 137:0 147:0.0051709199 157:0.00102866 167:0.237628 177:1.042e-10 187:0 #
5.1233413558476783578043978195637 21:0.0118478 31:0.068424799 84:0.061600398 94:0.018672099 127:1.39952e-21 137:4.0849e-09 147:0.00218926 157:0.0265764 167:0.051506899 177:2.27984e-21 #
-5.1233413558476783578043978195637 21:0.0020661999 31:0.238066 41:0.0041490099 84:0.0052090501 94:0.239068 104:4.1693902e-06 127:0 137:0 147:0.0051800399 157:0.00103102 167:0.23807 177:7.19865e-11 187:0 #
5.1233413558476783578043978195637 21:0.0128555 31:0.074290298 84:0.066873997 94:0.0202718 104:0 127:3.8185901e-20 137:5.9677802e-08 147:0.0023832701 157:0.028852301 167:0.055910099 177:6.22169e-20 #
5.1233413558476783578043978195637 21:0.0118883 31:0.068658501 84:0.0618109 94:0.018735901 127:1.35494e-21 137:4.0128998e-09 147:0.00219667 157:0.0266672 167:0.051682901 177:2.2072101e-21 #
-5.1233413558476783578043978195637 21:0.0020717499 31:0.238713 41:0.00416042 84:0.0052237301 94:0.23971701 104:4.24685e-06 127:0 137:0 147:0.00519419 157:0.00103376 167:0.238717 177:8.2142702e-11 187:0 #
-5.1233413558476783578043978195637 21:0.14466999 31:0.49175701 41:0.026048601 84:0.44547001 94:0.103086 104:0.11392 127:0.044177301 137:0.084837198 147:0.182733 157:0.133738 167:0.215949 177:0.00104106 187:1.33387e-06 #
5.1233413558476783578043978195637 21:0.0119635 31:0.069111302 84:0.062215801 94:0.018859001 104:0 127:4.5016199e-21 137:9.1183399e-09 147:0.00221371 157:0.026842199 167:0.052018899 177:7.3331403e-21 #
-5.1233413558476783578043978195637 21:0.00207562 31:0.23917601 41:0.0041688201 84:0.0052351402 94:0.240181 104:4.4138701e-06 127:0 137:0 147:0.0052044401 157:0.00103562 167:0.23918 177:9.2731302e-11 187:0 #
-5.1233413558476783578043978195637 21:0.0056204498 31:1.25892 41:0.033721 84:0.072988696 94:1.21963 104:0.0056442502 127:0 137:0 147:0.033720899 157:1.4110501e-07 167:1.26454 177:1.4048e-07 187:0 #
5.1233413558476783578043978195637 21:0.0120004 31:0.069312103 84:0.0623984 94:0.0189141 104:0 127:1.8828e-21 137:5.0725499e-09 147:0.0022183999 157:0.026920799 167:0.052173302 177:3.06711e-21 #
-5.1233413558476783578043978195637 21:0.00207723 31:0.239364 41:0.0041721701 84:0.0052395202 94:0.24036901 104:4.4502899e-06 127:0 137:0 147:0.00520857 157:0.0010364 167:0.23936801 177:9.2237502e-11 187:0 #
5.1233413558476783578043978195637 21:0.0120222 31:0.069461398 84:0.062529199 94:0.018954299 104:0 127:1.19792e-20 137:1.89033e-08 147:0.00222645 157:0.026977601 167:0.052279402 177:1.95139e-20 #
-5.1233413558476783578043978195637 21:0.0020908299 31:0.24089 41:0.0041979998 84:0.00526992 94:0.241905 104:4.1029698e-06 127:0 137:0 147:0.0052413698 157:0.00104337 167:0.240895 177:6.9436498e-11 187:0 #
5.1233413558476783578043978195637 21:0.012038 31:0.069537103 84:0.062599801 94:0.018975301 104:0 127:3.2308699e-21 137:7.1597599e-09 147:0.0022267201 157:0.0270078 167:0.052340601 177:5.2630901e-21 #
-5.1233413558476783578043978195637 21:0.0020989799 31:0.241825 41:0.0042142002 84:0.0052900398 94:0.242845 104:4.0772702e-06 127:0 137:0 147:0.0052616699 157:0.00104746 167:0.24183001 177:7.11338e-11 187:0 #
5.1233413558476783578043978195637 21:0.012035 31:0.069534302 84:0.062595099 94:0.0189742 104:0 127:1.02761e-20 137:1.73338e-08 147:0.00222859 157:0.027006 167:0.0523347 177:1.6739601e-20 #
5.1233413558476783578043978195637 21:0.0120421 31:0.069545001 84:0.062609203 94:0.0189778 104:0 127:1.35642e-21 137:3.8322598e-09 147:0.00222484 157:0.027011599 167:0.052350599 177:2.2096199e-21 #
-5.1233413558476783578043978195637 21:0.0021027001 31:0.242254 41:0.0042216899 84:0.0052994499 94:0.243275 104:4.0885802e-06 127:0 137:0 147:0.0052709999 157:0.00104931 167:0.242258 177:7.4210103e-11 187:0 #
-4.3620486828302258430767324171029 21:0.145858 31:0.495794 41:0.0262626 84:0.44912699 94:0.103932 104:0.114855 127:0.044539802 137:0.085533798 147:0.18423299 157:0.134836 167:0.217722 177:0.00104961 187:1.34973e-06 #
5.1233413558476783578043978195637 21:0.0120625 31:0.0696702 84:0.062720798 94:0.019011799 104:0 127:1.9321099e-21 137:5.03413e-09 147:0.00222985 157:0.027059801 167:0.052442901 177:3.1474299e-21 #
-5.1233413558476783578043978195637 21:0.0021051201 31:0.24253801 41:0.0042267302 84:0.0053060302 94:0.24356 104:4.1384801e-06 127:0 137:0 147:0.0052772299 157:0.0010505 167:0.242543 177:7.4069403e-11 187:0 #
5.1233413558476783578043978195637 21:0.0121836 31:0.070398502 84:0.063372098 94:0.019209901 104:0 127:1.87829e-20 137:2.74825e-08 147:0.0022571301 157:0.027341301 167:0.052983601 177:3.05967e-20 #
-5.1233413558476783578043978195637 21:0.00212767 31:0.24513 41:0.0042718002 84:0.0053623398 94:0.246163 104:4.1324502e-06 127:0 137:0 147:0.0053335698 157:0.00106178 167:0.245134 177:6.8734803e-11 187:0 #
-5.1233413558476783578043978195637 21:0.00211573 31:0.24374001 41:0.0042472999 84:0.0053308499 94:0.24476901 104:3.9751799e-06 127:0 137:0 147:0.0053031798 157:0.00105589 167:0.243744 177:6.6806401e-11 187:0 #
5.1233413558476783578043978195637 21:0.012257 31:0.070816398 84:0.063749403 94:0.0193241 104:0 127:9.10774e-21 137:1.5185201e-08 147:0.0022696201 157:0.027504001 167:0.0532999 177:1.48364e-20 #
5.1233413558476783578043978195637 21:0.0124144 31:0.071717203 84:0.064561501 94:0.019570099 104:0 127:4.6384399e-21 137:9.1541299e-09 147:0.0022973199 157:0.0278542 167:0.05398 177:7.5560202e-21 #
-5.1233413558476783578043978195637 21:0.0021474599 31:0.24739 41:0.0043108002 84:0.0054102899 94:0.24843401 104:3.9865799e-06 127:0 137:0 147:0.0053825402 157:0.0010717399 167:0.247394 177:6.6613e-11 187:0 #
5.1233413558476783578043978195637 21:0.0125098 31:0.072258197 84:0.065050103 94:0.0197179 104:0 127:2.4365201e-21 137:5.85612e-09 147:0.00231323 157:0.0280648 167:0.054389998 177:3.9691098e-21 #
-5.1233413558476783578043978195637 21:0.0021816201 31:0.251322 41:0.0043792101 84:0.0054959101 94:0.25238299 104:4.00711e-06 127:0 137:0 147:0.0054680202 157:0.00108882 167:0.25132599 177:6.7199198e-11 187:0 #
5.1233413558476783578043978195637 21:0.0126638 31:0.073170602 84:0.065867998 94:0.019966399 104:0 127:1.15475e-20 137:1.8438801e-08 147:0.00234562 157:0.0284181 167:0.055070698 177:1.88108e-20 #
5.1233413558476783578043978195637 21:0.012707 31:0.073384799 84:0.066066101 94:0.0200257 104:0 127:1.66405e-21 137:3.93424e-09 147:0.00234764 157:0.028503001 167:0.055241201 177:2.7107599e-21 #
-5.1233413558476783578043978195637 21:0.00222309 31:0.25612199 41:0.0044633001 84:0.0056026201 94:0.25720099 104:4.2976799e-06 127:0 137:0 147:0.0055727102 157:0.0011093999 167:0.25612599 177:7.0961299e-11 187:0 #
5.1233413558476783578043978195637 21:0.00101132 31:0.89441103 94:0.88890803 104:0.0065138401 167:0.87499499 177:0.020427199 #
5.1233413558476783578043978195637 21:0.0127144 31:0.073429801 84:0.066106297 94:0.020037901 104:0 127:1.53926e-21 137:4.13793e-09 147:0.0023493499 157:0.0285204 167:0.055274501 177:2.5074801e-21 #
-5.1233413558476783578043978195637 21:0.0022436001 31:0.25845999 41:0.0045035798 84:0.0056519699 94:0.25955099 104:4.1141898e-06 127:0 137:0 147:0.0056233299 157:0.00111975 167:0.25846401 177:6.8983701e-11 187:0 #
5.1233413558476783578043978195637 21:0.0128478 31:0.074232496 84:0.066824101 94:0.020256201 104:0 127:9.94137e-21 137:1.58054e-08 147:0.00237946 157:0.028830601 167:0.055870201 177:1.61944e-20 #
-5.1233413558476783578043978195637 21:0.0022688401 31:0.26137701 41:0.00455458 84:0.0057164198 94:0.26247999 104:4.2438501e-06 127:0 137:0 147:0.0056868899 157:0.00113231 167:0.261381 177:7.0640001e-11 187:0 #
-5.1233413558476783578043978195637 21:0.069050297 31:0.111588 41:0.00194293 84:0.075266503 94:0.106829 104:0.00048553801 127:0 137:0.039625 147:0.0293296 157:0.036322001 167:0.077304602 177:0 187:0 #
5.1233413558476783578043978195637 21:0.0129598 31:0.074855298 84:0.0673884 94:0.0204267 104:0 127:2.31437e-21 137:5.4551799e-09 147:0.00239612 157:0.0290736 167:0.056345299 177:3.7701301e-21 #
5.1233413558476783578043978195637 31:2.7937801 84:0.0066496101 94:2.7871301 167:2.7937801 #
-5.1233413558476783578043978195637 21:0.039155301 31:0.311185 84:0.031354599 94:0.313889 104:0.00509687 127:0.00071821001 137:0.032228801 147:0.0011115 167:0.31628099 177:8.7466799e-07 #
5.1233413558476783578043978195637 21:0.0130549 31:0.075407602 84:0.067885198 94:0.0205773 104:0 127:2.6304501e-21 137:5.974e-09 147:0.0024141599 157:0.029287999 167:0.0567603 177:4.2850201e-21 #
-5.1233413558476783578043978195637 21:0.00230118 31:0.26510301 41:0.0046194899 84:0.00579785 94:0.26622099 104:4.29803e-06 127:0 137:0 147:0.0057679401 157:0.00114845 167:0.26510701 177:7.1555102e-11 187:0 #
5.1233413558476783578043978195637 31:2.6480899 94:2.6480899 167:2.6480899 #
-5.1233413558476783578043978195637 21:0.00230452 31:0.26549 41:0.0046263002 84:0.0058065602 94:0.26661 104:4.3332002e-06 127:0 137:0 147:0.00577641 157:0.0011501 167:0.265495 177:7.1972497e-11 187:0 #
5.1233413558476783578043978195637 31:2.5929 94:2.5929 167:2.5929 #
-5.1233413558476783578043978195637 21:0.0023511699 31:0.270868 41:0.0047201002 84:0.0059244898 94:0.27201101 104:4.4577801e-06 127:0 137:0 147:0.00589346 157:0.00117336 167:0.27087301 177:7.3786401e-11 187:0 #
5.1233413558476783578043978195637 21:0.0132298 31:0.076449797 84:0.068818599 94:0.020861 104:0 127:2.0375501e-20 137:2.8998199e-08 147:0.00245196 157:0.029691299 167:0.057536401 177:3.31912e-20 #
5.1233413558476783578043978195637 31:2.3275199 94:2.3275199 167:2.3275199 #
5.1233413558476783578043978195637 21:0.00087277702 31:0.64972299 94:0.64586598 104:0.0047298102 167:0.63564199 177:0.0149538 #
-5.1233413558476783578043978195637 21:0.0023916899 31:0.27552199 41:0.0048009199 84:0.00602521 94:0.276685 104:4.40234e-06 127:0 137:0 147:0.00599457 157:0.00119365 167:0.275527 177:7.3606503e-11 187:0 #
5.1233413558476783578043978195637 21:0.00413313 31:0.058712099 84:0.0245021 94:0.038343102 104:2.0751601e-35 127:1.3116154e-42 137:0.0089085298 147:0.0208441 157:0.0089101903 167:0.0241824 177:2.7269268e-42 #
5.1233413558476783578043978195637 21:0.013249 31:0.076530702 84:0.068896003 94:0.0208838 104:0 127:2.9923299e-21 137:6.3429799e-09 147:0.00245039 157:0.029724101 167:0.0576052 177:4.8745301e-21 #
-5.1233413558476783578043978195637 21:0.00241181 31:0.27783501 41:0.00484112 84:0.0060754102 94:0.279008 104:4.3938098e-06 127:0 137:0 147:0.0060448302 157:0.00120372 167:0.277839 177:7.3722001e-11 187:0 #
5.1233413558476783578043978195637 31:2.4451301 94:2.4451301 167:2.4451301 #
-5.1233413558476783578043978195637 21:0.00432667 31:0.49830499 41:0.00868042 84:0.0108877 94:0.50041699 104:6.80019e-06 127:0 137:0 147:0.0108404 157:0.0021599501 167:0.498312 177:1.1824899e-10 187:0 #
-5.1233413558476783578043978195637 21:0.00253486 31:0.29200301 41:0.0050878599 84:0.0063847001 94:0.293237 104:4.55084e-06 127:0 137:0 147:0.0063530202 157:0.0012651701 167:0.29200801 177:7.66733e-11 187:0 #
5.1233413558476783578043978195637 21:0.0133528 31:0.077122599 84:0.069429897 94:0.0210455 127:2.1163901e-21 137:5.0453801e-09 147:0.0024683301 157:0.0299544 167:0.0580527 177:3.4476201e-21 #
5.1233413558476783578043978195637 31:2.0761001 84:0.0043775602 94:2.0717199 167:2.0761001 #
-5.1233413558476783578043978195637 21:0.0055139302 31:0.63502598 41:0.0110618 84:0.0138738 94:0.63771999 104:8.5199899e-06 127:0 137:0 147:0.0138145 157:0.0027527199 167:0.63503498 177:1.47707e-10 187:0 #
-5.1233413558476783578043978195637 21:0.0025510599 31:0.29389399 41:0.00512126 84:0.0064278301 94:0.29513299 104:4.8034899e-06 127:0 137:0 147:0.0063943998 157:0.00127314 167:0.293899 177:7.9561101e-11 187:0 #
-5.1233413558476783578043978195637 21:0.0118562 31:1.37703 41:0.0242118 84:0.030951399 94:1.38202 104:0.000124875 127:0 137:0 147:0.030076601 157:0.0058654798 167:1.37716 177:3.1736801e-07 187:0 #
5.1233413558476783578043978195637 21:0.0041062902 31:0.058329299 84:0.024342399 94:0.038093202 104:1.42182e-35 127:5.1427654e-43 137:0.0088505 147:0.0207082 157:0.0088521102 167:0.024024799 177:1.5736582e-42 #
5.1233413558476783578043978195637 21:0.0134165 31:0.077527396 84:0.069788799 94:0.0211551 104:0 127:1.64432e-20 137:2.4425599e-08 147:0.0024863 157:0.0301098 167:0.058347698 177:2.6785599e-20 #
-5.1233413558476783578043978195637 21:0.00256148 31:0.29507801 41:0.0051416 84:0.0064525902 94:0.29632401 104:4.6813898e-06 127:0 137:0 147:0.0064200098 157:0.00127841 167:0.29508299 177:7.8350097e-11 187:0 #
-5.1233413558476783578043978195637 21:0.0050738798 31:0.58445102 41:0.0101828 84:0.0127765 94:0.58692199 104:8.7920598e-06 127:0 137:0 147:0.0127153 157:0.0025325599 167:0.58445901 177:1.47271e-10 187:0 #
5.1233413558476783578043978195637 21:0.0134262 31:0.077565603 84:0.069825999 94:0.0211659 104:0 127:5.2464799e-21 137:9.4691002e-09 147:0.0024850699 157:0.030125501 167:0.0583812 177:8.5465101e-21 #
5.1233413558476783578043978195637 31:2.05269 84:0.0109773 94:2.0417199 167:2.05269 #
-5.1233413558476783578043978195637 21:0.00258708 31:0.29801801 41:0.00519263 84:0.0065161199 94:0.29927701 104:4.63482e-06 127:0 137:0 147:0.0064838701 157:0.00129123 167:0.298022 177:7.8114397e-11 187:0 #
4.8475794437546824156015645712614 21:0.0136731 31:0.079018503 84:0.071129799 94:0.0215618 104:0 127:3.0384098e-20 137:4.3937799e-08 147:0.0025353101 157:0.0306885 167:0.059467699 177:4.9494601e-20 #
-5.1233413558476783578043978195637 21:0.039282799 31:0.15479299 41:2.35025e-06 84:0.042924799 94:0.151151 104:2.3489399e-06 127:0 137:0.0057971198 147:0.0479207 157:0.029522499 167:0.110838 177:2.89922e-33 187:0 #
-5.1233413558476783578043978195637 21:0.0025885799 31:0.29820299 41:0.0051961099 84:0.00652113 94:0.29946199 104:4.7560902e-06 127:0 137:0 147:0.0064880298 157:0.00129192 167:0.298208 177:7.9437699e-11 187:0 #
5.1233413558476783578043978195637 21:0.0137374 31:0.079389401 84:0.071463801 94:0.021663001 104:0 127:2.79383e-20 137:4.1567201e-08 147:0.0025471 157:0.0308326 167:0.0597471 177:4.5510501e-20 #
-5.1233413558476783578043978195637 21:0.0037354 31:0.43030399 41:0.0074976902 84:0.0094090002 94:0.43212101 104:6.7493202e-06 127:0 137:0 147:0.0093620298 157:0.00186434 167:0.43031001 177:1.12358e-10 187:0 #
-5.1233413558476783578043978195637 21:0.0048883301 31:0.563133 41:0.0098124202 84:0.0123146 94:0.56550997 104:8.9737696e-06 127:0 137:0 147:0.0122521 157:0.0024397001 167:0.56314099 177:1.47712e-10 187:0 #
-5.1233413558476783578043978195637 21:0.0059596999 31:0.68637198 41:0.0119563 84:0.0149961 94:0.68928301 104:9.2688097e-06 127:0 137:0 147:0.0149316 157:0.0029752399 167:0.68638098 177:1.59936e-10 187:0 #
0.00010934629426628816872835159301758 21:0.0137405 31:0.079407297 84:0.071479902 94:0.0216679 104:0 127:2.9164999e-20 137:4.3818801e-08 147:0.00254776 157:0.030839499 167:0.059760399 177:4.7508698e-20 #
-5.1233413558476783578043978195637 21:0.0025997499 31:0.29947799 41:0.0052181198 84:0.00654819 94:0.30074301 104:4.6733398e-06 127:0 137:0 147:0.0065156599 157:0.00129755 167:0.299483 177:7.8646402e-11 187:0 #
5.1233413558476783578043978195637 21:0.0137703 31:0.079548202 84:0.071611501 94:0.021707 104:0 127:4.0523102e-21 137:7.70856e-09 147:0.0025478699 157:0.030895799 167:0.059874799 177:6.60122e-21 #
5.1233413558476783578043978195637 21:0.0138625 31:0.0800969 84:0.072103098 94:0.021856399 104:0 127:9.0971902e-21 137:1.36934e-08 147:0.00256761 157:0.0311081 167:0.060283698 177:1.4819201e-20 #
1.3061684673300675285645411349833 21:0.00014042101 31:0.149802 84:0.0241313 94:0.125678 104:0.000132438 127:0 137:0.00145725 147:0.078222401 157:0.00516799 167:0.064961597 177:0.00013272899 187:0 #
5.1233413558476783578043978195637 21:0.00253581 31:2.5446999 94:2.5286901 104:0.0185376 167:2.4893999 177:0.057832301 #
5.1233413558476783578043978195637 21:0.0047400701 31:0.067336001 84:0.0281011 94:0.043974999 104:3.1844001e-35 127:8.8281803e-44 137:0.010217 147:0.023905801 157:0.010219 167:0.0277343 177:2.5209359e-42 #
-5.1233413558476783578043978195637 21:0.00263717 31:0.30379 41:0.0052932398 84:0.0066424902 94:0.30507299 104:4.7449198e-06 127:0 137:0 147:0.0066094599 157:0.00131622 167:0.303794 177:7.9809298e-11 187:0 #
5.1233413558476783578043978195637 21:0.0140683 31:0.081283003 84:0.073171198 94:0.022180101 104:0 127:7.73041e-21 137:1.18858e-08 147:0.0026052599 157:0.0315689 167:0.061177101 177:1.25928e-20 #
5.1233413558476783578043978195637 21:0.0045571402 31:0.064739302 84:0.0270174 94:0.042279098 104:4.7018701e-32 127:2.0273286e-40 137:0.0098229302 147:0.022983899 157:0.0098248897 167:0.0266647 177:5.8127402e-39 #
-5.1233413558476783578043978195637 21:0.00265507 31:0.30584499 41:0.00532891 84:0.00668689 94:0.30713701 104:4.7106e-06 127:0 137:0 147:0.0066541 157:0.00132519 167:0.30584899 177:7.9619797e-11 187:0 #
5.1233413558476783578043978195637 21:0.0139988 31:0.080850497 84:0.072786503 94:0.022062801 104:0 127:2.0622e-21 137:4.7014401e-09 147:0.0025871799 157:0.031402498 167:0.060859699 177:3.3593499e-21 #
-5.1233413558476783578043978195637 21:0.039659001 31:0.156271 41:2.4231799e-06 84:0.043334901 94:0.152595 104:2.42177e-06 127:0 137:0.0058525698 147:0.0483783 157:0.0298051 167:0.111896 177:3.94309e-33 187:0 #
-5.1233413558476783578043978195637 21:0.0026771601 31:0.30841401 41:0.0053741699 84:0.0067449501 94:0.309715 104:4.9836899e-06 127:0 137:0 147:0.0067102602 157:0.0013361 167:0.30841899 177:8.2790101e-11 187:0 #
5.1233413558476783578043978195637 21:0.0046925098 31:0.066659302 84:0.0278187 94:0.043533102 104:2.78543e-35 127:9.3606737e-43 137:0.0101143 147:0.023665501 157:0.0101163 167:0.0274556 177:2.8656554e-42 #
-5.1233413558476783578043978195637 21:0.0026855799 31:0.30936199 41:0.0053902501 84:0.0067639998 94:0.310669 104:4.7906701e-06 127:0 137:0 147:0.0067306501 157:0.00134041 167:0.309367 177:8.0782797e-11 187:0 #
5.1233413558476783578043978195637 21:0.0047522499 31:0.067507498 84:0.0281727 94:0.044087101 104:2.60985e-35 127:8.6880505e-43 137:0.0102431 147:0.0239667 157:0.010245 167:0.027805001 177:2.6582632e-42 #
-5.1233413558476783578043978195637 21:0.0026878 31:0.30963799 41:0.0053954502 84:0.00677155 94:0.31094399 104:4.9847199e-06 127:0 137:0 147:0.0067368601 157:0.00134142 167:0.309643 177:8.2913398e-11 187:0 #
-5.1233413558476783578043978195637 21:0.0094435802 31:1.09501 41:0.019217599 84:0.024475601 94:1.09912 104:8.2833802e-05 127:0 137:0 147:0.023898 157:0.0046804901 167:1.0951 177:8.4435797e-10 187:0 #
-5.1233413558476783578043978195637 21:0.0027073701 31:0.311876 41:0.0054341401 84:0.0068192701 94:0.31319401 104:4.8672e-06 127:0 137:0 147:0.0067854002 157:0.00135126 167:0.31188101 177:8.1821598e-11 187:0 #
5.1233413558476783578043978195637 21:0.0140098 31:0.080929302 84:0.072855197 94:0.022084 104:0 127:3.6513198e-21 137:7.1168098e-09 147:0.0025917799 157:0.031432301 167:0.060915001 177:5.9480098e-21 #
-5.1233413558476783578043978195637 21:0.0027149799 31:0.312783 41:0.00545051 84:0.0068413201 94:0.31410199 104:5.15689e-06 127:0 137:0 147:0.0068054302 157:0.00135492 167:0.31278801 177:8.50413e-11 187:0 #
5.1233413558476783578043978195637 21:0.0140367 31:0.081108198 84:0.073012702 94:0.022132199 104:0 127:1.18247e-20 137:1.73332e-08 147:0.00260075 157:0.031500701 167:0.061043501 177:1.92623e-20 #
-5.1233413558476783578043978195637 21:0.00274724 31:0.31646299 41:0.00551394 84:0.0069191102 94:0.31779999 104:4.88259e-06 127:0 137:0 147:0.00688513 157:0.00137119 167:0.316468 177:8.2389803e-11 187:0 #
-5.1233413558476783578043978195637 21:0.00282231 31:0.325111 41:0.0056646299 84:0.0071082399 94:0.32648501 104:5.0223098e-06 127:0 137:0 147:0.0070732902 157:0.00140865 167:0.32511601 177:8.4658697e-11 187:0 #
5.1233413558476783578043978195637 31:1.15152 94:1.15152 167:1.15152 #
-5.1233413558476783578043978195637 21:0.0109541 31:1.26133 41:0.021967299 84:0.027540199 94:1.2667 104:1.48325e-05 127:0 137:0 147:0.027437 157:0.0054696701 167:1.26135 177:2.6771799e-10 187:0 #
5.1233413558476783578043978195637 31:1.56644 84:0.0046618902 94:1.56178 167:1.56644 #
5.1233413558476783578043978195637 21:0.0044375998 31:0.063037202 84:0.0263071 94:0.041167699 104:2.2230499e-35 127:7.272739e-43 137:0.0095648002 147:0.0223796 157:0.0095665799 167:0.0259638 177:2.2266633e-42 #
-5.1233413558476783578043978195637 21:0.0028335899 31:0.32642701 41:0.0056878598 84:0.0071382001 94:0.32780501 104:5.1904399e-06 127:0 137:0 147:0.0071020699 157:0.00141421 167:0.32643199 177:8.6599797e-11 187:0 #
5.1233413558476783578043978195637 31:1.15152 94:1.15152 167:1.15152 #
2.8047476119397174443292897194624e-08 21:0.00491026 31:0.069759399 84:0.0291123 94:0.045557398 104:8.1722898e-35 127:7.2082793e-42 137:0.0105845 147:0.024766199 157:0.0105867 167:0.028732199 177:1.4992492e-41 #
-5.1233413558476783578043978195637 21:0.0028732901 31:0.331002 41:0.00576765 84:0.0072384598 94:0.33239999 104:5.2874102e-06 127:0 137:0 147:0.00720166 157:0.00143401 167:0.33100799 177:8.8057998e-11 187:0 #
5.1233413558476783578043978195637 21:0.0043671601 31:0.0620359 84:0.025889199 94:0.040513799 104:1.9496801e-35 127:6.1797262e-43 137:0.0094128801 147:0.022024101 157:0.0094146198 167:0.025551399 177:1.8903516e-42 #
-5.1233413558476783578043978195637 21:0.00288554 31:0.33240101 41:0.0057917899 84:0.0072681499 94:0.33380499 104:5.1990301e-06 127:0 137:0 147:0.0072319699 157:0.00144018 167:0.33240601 177:8.71931e-11 187:0 #
5.1233413558476783578043978195637 31:1.0711 94:1.0711 167:1.0711 #
-5.1233413558476783578043978195637 21:0.0059924 31:0.69029403 41:0.0120277 84:0.0150935 94:0.69321001 104:1.07658e-05 127:0 137:0 147:0.0150185 157:0.00299084 167:0.69030499 177:1.7775401e-10 187:0 #
5.1233413558476783578043978195637 21:0.00423946 31:0.060221002 84:0.0251319 94:0.039328601 104:1.47853e-35 127:5.0867134e-43 137:0.0091375299 147:0.021379801 157:0.0091391904 167:0.024804 177:1.5582439e-42 #
5.1233413558476783578043978195637 31:1.08849 84:1.69997e-05 94:1.08848 167:1.08849 #
-5.1233413558476783578043978195637 21:0.0029702799 31:0.34215599 41:0.0059616198 84:0.0074809198 94:0.343602 104:5.28706e-06 127:0 137:0 147:0.0074441298 157:0.00148251 167:0.342161 177:8.8981197e-11 187:0 #
-5.1233413558476783578043978195637 21:0.0059855301 31:0.68926799 41:0.0120053 84:0.0150535 94:0.69219601 104:8.5842703e-06 127:0 137:0 147:0.0149937 157:0.00298849 167:0.68927598 177:1.52067e-10 187:0 #
0.00028657414480726117744779912754893 21:0.00535534 31:0.076089501 84:0.031753901 94:0.049690999 104:1.70589e-34 127:1.3256283e-42 137:0.0115447 147:0.0270136 157:0.0115474 167:0.031339101 177:3.7966781e-41 #
-5.1233413558476783578043978195637 21:0.041607901 31:0.163949 41:2.5525501e-06 84:0.045464199 94:0.16009299 104:2.5510401e-06 127:0 137:0.0061401702 147:0.050755501 157:0.0312698 167:0.117394 177:4.5643898e-33 187:0 #
-5.1233413558476783578043978195637 21:0.0029893699 31:0.34438699 41:0.0060010799 84:0.0075320001 94:0.34584001 104:5.6061499e-06 127:0 137:0 147:0.00749298 157:0.0014919 167:0.344392 177:9.26497e-11 187:0 #
5.1233413558476783578043978195637 21:0.00425515 31:0.060446002 84:0.025225701 94:0.0394754 104:2.68021e-32 127:8.9083346e-41 137:0.0091716005 147:0.021459701 157:0.0091733299 167:0.024896501 177:2.5548305e-39 #
5.1233413558476783578043978195637 21:0.00418822 31:0.059492499 84:0.024827899 94:0.0388529 104:1.35776e-35 127:4.1618564e-43 137:0.0090270201 147:0.0211211 157:0.0090286396 167:0.0245039 177:1.2751816e-42 #
-5.1233413558476783578043978195637 21:0.0029911399 31:0.34456199 41:0.0060036099 84:0.0075337598 94:0.34601799 104:5.35239e-06 127:0 137:0 147:0.0074965102 157:0.00149291 167:0.34456801 177:8.9905701e-11 187:0 #
5.1233413558476783578043978195637 21:0.0042044101 31:0.059722401 84:0.0249238 94:0.039003 104:1.2989401e-35 127:4.0357396e-43 137:0.0090619 147:0.021202801 157:0.0090635195 167:0.0245986 177:1.2373465e-42 #
5.1233413558476783578043978195637 21:0.00703482 31:1.01748 94:1.01719 104:0.0073248702 167:0.9964 177:0.028117601 #
-5.1233413558476783578043978195637 21:0.0059378999 31:0.68386298 41:0.0119127 84:0.0149415 94:0.68676299 104:9.26132e-06 127:0 137:0 147:0.014877 157:0.0029643399 167:0.683873 177:1.5971199e-10 187:0 #
-5.1233413558476783578043978195637 21:0.00303471 31:0.34956801 41:0.00609056 84:0.00764221 94:0.35104501 104:5.3080298e-06 127:0 137:0 147:0.00760527 157:0.00151471 167:0.34957299 177:8.9876703e-11 187:0 #
5.1233413558476783578043978195637 21:0.0044377302 31:0.063039698 84:0.026308101 94:0.041169301 104:2.32874e-35 127:6.8663625e-44 137:0.0095651504 147:0.022380499 157:0.0095669599 167:0.0259648 177:1.9716269e-42 #
5.1233413558476783578043978195637 21:0.0065901 31:1.02435 94:1.02356 104:0.0073814602 167:1.00304 177:0.0278979 #
5.1233413558476783578043978195637 31:1.0711 94:1.0711 167:1.0711 #
-5.1233413558476783578043978195637 21:0.0031105501 31:0.35830101 41:0.0062426799 84:0.0078329602 94:0.35981601 104:5.4176799e-06 127:0 137:0 147:0.00779525 157:0.00155258 167:0.35830599 177:9.1771597e-11 187:0 #
-5.1233413558476783578043978195637 21:0.0048756702 31:0.56169599 41:0.0097878203 84:0.0122848 94:0.56406599 104:9.1580496e-06 127:0 137:0 147:0.0122211 157:0.00243327 167:0.56170499 177:1.49705e-10 187:0 #
-5.1233413558476783578043978195637 21:0.0058728401 31:0.676422 41:0.0117841 84:0.0147827 94:0.67928702 104:9.6332797e-06 127:0 137:0 147:0.0147157 157:0.00293162 167:0.67643201 177:1.63693e-10 187:0 #
5.1233413558476783578043978195637 21:0.0045011998 31:0.063939802 84:0.0266838 94:0.0417572 104:1.86377e-35 127:6.2357782e-43 137:0.0097017698 147:0.022700001 157:0.0097035598 167:0.026335601 177:1.9113711e-42 #
-5.1233413558476783578043978195637 21:0.0058399299 31:0.67255199 41:0.0117151 84:0.0146921 94:0.67540598 104:8.8377801e-06 127:0 137:0 147:0.0146306 157:0.00291557 167:0.67256099 177:1.53938e-10 187:0 #
5.1233413558476783578043978195637 21:0.0041563399 31:0.0590402 84:0.0246391 94:0.0385575 104:1.5369099e-35 127:4.7504018e-43 137:0.0089583704 147:0.020960599 157:0.00895999 167:0.0243176 177:1.4531465e-42 #
5.1233413558476783578043978195637 21:0.0057651298 31:1.0496401 94:1.04782 104:0.007578 167:1.02764 177:0.027767099 #
5.1233413558476783578043978195637 21:0.00097649603 31:0.81830001 94:0.813317 104:0.00595879 167:0.80054498 177:0.0187316 #
-5.1233413558476783578043978195637 21:0.068213798 31:0.106668 41:0.00151181 84:0.069157198 94:0.106575 104:0.00066130998 127:0 137:0.035333201 147:0.0305168 157:0.035335299 167:0.0752085 177:0 187:0 #
-5.1233413558476783578043978195637 21:0.0031785299 31:0.36613801 41:0.0063793198 84:0.0080046896 94:0.36768499 104:5.5871901e-06 127:0 137:0 147:0.0079658097 157:0.0015864799 167:0.36614299 177:9.4275698e-11 187:0 #
5.1233413558476783578043978195637 21:0.0056622201 31:1.08859 94:1.08639 104:0.0078638298 167:1.06572 177:0.028535901 #
-5.1233413558476783578043978195637 21:0.00321217 31:0.37000301 41:0.0064464901 84:0.00808849 94:0.37156799 104:5.5580299e-06 127:0 137:0 147:0.0080498103 157:0.00160332 167:0.37000901 177:9.4287703e-11 187:0 #
5.1233413558476783578043978195637 21:0.00440594 31:1.01993 94:1.01695 104:0.0073806499 167:0.99833399 177:0.0260008 #
5.1233413558476783578043978195637 21:0.00083583797 31:0.601556 94:0.59801298 104:0.00437877 167:0.58852398 177:0.0138683 #
5.1233413558476783578043978195637 21:0.00414431 31:0.058869801 84:0.024568001 94:0.038446199 104:1.67269e-35 127:5.2969082e-43 137:0.0089325001 147:0.0209001 157:0.00893413 167:0.0242474 177:1.6213023e-42 #
-5.1233413558476783578043978195637 21:0.0032502599 31:0.374387 41:0.0065228101 84:0.0081840996 94:0.37597099 104:5.5955302e-06 127:0 137:0 147:0.0081451498 157:0.0016223399 167:0.37439299 177:9.5160102e-11 187:0 #
-5.1233413558476783578043978195637 21:0.0111483 31:1.28649 41:0.0224596 84:0.028298199 94:1.29176 104:4.0984502e-05 127:0 137:0 147:0.028013401 157:0.0055537401 167:1.28654 177:9.7608299e-10 187:0 #
-5.1233413558476783578043978195637 21:0.052607901 31:0.42199001 84:0.042413101 94:0.42527199 104:0.0069123702 127:0.000871873 137:0.043474302 147:0.0013493201 167:0.42890099 177:1.0617e-06 #
5.1233413558476783578043978195637 21:0.000902878 31:0.706523 94:0.70228201 104:0.0051439698 167:0.691203 177:0.0162227 #
-5.1233413558476783578043978195637 21:0.0088339904 31:1.01738 41:0.0177218 84:0.022226101 94:1.02169 104:1.35145e-05 127:0 137:0 147:0.022132101 157:0.0044102701 167:1.01739 177:2.3299701e-10 187:0 #
-5.1233413558476783578043978195637 21:0.00325769 31:0.37524799 41:0.0065378901 84:0.0082032597 94:0.37683499 104:5.6511399e-06 127:0 137:0 147:0.0081639299 157:0.00162603 167:0.37525401 177:9.5734802e-11 187:0 #
-5.1233413558476783578043978195637 21:0.0117049 31:1.35067 41:0.023578901 84:0.0297054 94:1.35621 104:4.24395e-05 127:0 137:0 147:0.0294102 157:0.0058313399 167:1.35072 177:1.0855e-09 187:0 #
5.1233413558476783578043978195637 21:0.0041835201 31:1.01739 94:1.0142 104:0.0073655001 167:0.99581897 177:0.0257503 #
-5.1233413558476783578043978195637 21:0.00326503 31:0.37610701 41:0.00655312 84:0.00822304 94:0.37769601 104:5.7897601e-06 127:0 137:0 147:0.0081827501 157:0.00162963 167:0.37611201 177:9.7346603e-11 187:0 #
5.1233413558476783578043978195637 21:0.0044021602 31:1.06872 94:1.06538 104:0.0077370298 167:1.04607 177:0.027055699 #
5.1233413558476783578043978195637 21:0.00083617202 31:0.59637499 94:0.59287 104:0.0043409402 167:0.58345598 177:0.0137552 #
-5.1233413558476783578043978195637 21:0.00335205 31:0.38611999 41:0.0067273998 84:0.00844122 94:0.38775301 104:5.8503101e-06 127:0 137:0 147:0.0084005101 157:0.0016731099 167:0.38612601 177:9.8846202e-11 187:0 #
5.1233413558476783578043978195637 21:0.0060200701 31:0.061154 84:0.037204899 94:0.0299691 104:7.0892103e-33 137:6.1370999e-16 147:0.015651301 157:1.09573e-06 167:0.0515217 177:0 #
0.5534369412735031801275908946991 21:0.0063009402 31:0.089524403 84:0.037360601 94:0.058464799 104:2.3661799e-34 127:1.2467352e-41 137:0.0135832 147:0.031783301 157:0.0135863 167:0.036872599 177:3.816016e-41 #
5.1233413558476783578043978195637 21:0.0041638799 31:0.059147701 84:0.0246839 94:0.038627598 104:1.6639399e-35 127:5.2268433e-43 137:0.0089746602 147:0.0209987 157:0.0089763096 167:0.024361899 177:1.5988815e-42 #
-5.1233413558476783578043978195637 21:0.0034322501 31:0.39534301 41:0.0068878001 84:0.0086417301 94:0.39701599 104:5.8505698e-06 127:0 137:0 147:0.0086010098 157:0.00171321 167:0.395349 177:9.95896e-11 187:0 #
5.1233413558476783578043978195637 21:0.0042057601 31:0.059742901 84:0.024932301 94:0.039016299 104:1.79492e-35 127:5.8153886e-43 137:0.0090649603 147:0.02121 157:0.0090666302 167:0.024607001 177:1.7782478e-42 #
4.6705643544871691119624301791191 21:0.000115299 31:0.130163 84:0.020967999 94:0.109195 104:0.000115102 127:5.5149498e-09 137:0.00127459 147:0.067965098 157:0.0044912202 167:0.056432001 177:0.000115144 187:0 #
-5.1233413558476783578043978195637 21:0.0034328599 31:0.39541599 41:0.0068891002 84:0.0086434605 94:0.39708799 104:5.8701798e-06 127:0 137:0 147:0.0086025996 157:0.0017135 167:0.39542201 177:9.9989003e-11 187:0 #
5.1233413558476783578043978195637 21:1.00694e-09 31:0.071295902 84:0.00068220199 94:0.070613697 104:0 127:4.0328101e-09 137:0.0143256 147:0.055605698 157:0.00034109899 167:0.00102333 177:2.5517701e-07 #
-5.1233413558476783578043978195637 21:0.0418263 31:0.164799 41:2.67155e-06 84:0.045700599 94:0.160925 104:2.6698899e-06 127:0 137:0.00617225 147:0.051019002 157:0.031433601 167:0.118003 177:0 187:0 #
5.1233413558476783578043978195637 21:0.0040539401 31:0.057583999 84:0.024031401 94:0.037606601 104:1.08836e-35 127:3.0548307e-43 137:0.00873747 147:0.0204436 157:0.0087390104 167:0.023717901 177:9.3466608e-43 #
-5.1233413558476783578043978195637 21:0.0034409701 31:0.39635801 41:0.0069056498 84:0.0086645801 94:0.39803401 104:5.9504e-06 127:0 137:0 147:0.0086231697 157:0.0017175199 167:0.396364 177:1.00779e-10 187:0 #
5.1233413558476783578043978195637 21:0.0115639 31:0.920744 94:0.92575502 104:0.0065533398 167:0.90256602 177:0.0297419 #
-5.1233413558476783578043978195637 21:0.00348182 31:0.401057 41:0.0069874101 84:0.00876687 94:0.402753 104:5.9666199e-06 127:0 137:0 147:0.0087253498 157:0.00173794 167:0.401063 177:1.0132e-10 187:0 #
1.2518987503754814838430320378393 21:0.0190644 31:0.27111 84:0.113136 94:0.177038 104:2.2859801e-31 127:8.4246602e-38 137:0.041126601 147:0.096252799 157:0.041143499 167:0.111651 177:1.84097e-37 #
5.1233413558476783578043978195637 21:0.00096789602 31:0.78378099 94:0.77904201 104:0.0057069501 167:0.76678097 177:0.017968399 #
0.72210261633165373496012762188911 21:0.0057369401 31:0.091557801 84:0.063672602 94:0.033622202 104:0 137:9.4785303e-17 147:0.0130505 157:0.0021752301 167:0.082069002 177:0 #
-5.1233413558476783578043978195637 21:0.041994698 31:0.165474 41:2.5699801e-06 84:0.045887001 94:0.16158199 104:2.5684801e-06 127:0 137:0.0061972602 147:0.051227499 157:0.031560499 167:0.118486 177:4.2448802e-33 187:0 #
5.1233413558476783578043978195637 21:0.0066400301 31:0.067476399 84:0.041052099 94:0.033064298 104:5.7060873e-42 137:4.66798e-22 147:0.0172702 157:1.04643e-07 167:0.056846101 177:0 #
-5.1233413558476783578043978195637 21:0.042667899 31:0.168109 41:2.7897199e-06 84:0.046618801 94:0.164158 104:2.78793e-06 127:0 137:0.0062963599 147:0.0520439 157:0.032065898 167:0.120374 177:0 187:0 #
5.1233413558476783578043978195637 21:0.0043925899 31:0.062396701 84:0.0260398 94:0.040749401 104:1.74474e-35 127:5.6472328e-43 137:0.00946764 147:0.0221522 157:0.0094693704 167:0.0257001 177:1.7320049e-42 #
-5.1233413558476783578043978195637 21:0.043237701 31:0.170352 41:2.8514601e-06 84:0.047240902 94:0.16634899 104:2.8495999e-06 127:0 137:0.00638043 147:0.052738301 157:0.032494199 167:0.12198 177:0 187:0 #
5.1233413558476783578043978195637 21:0.0062989299 31:0.063987799 84:0.038929202 94:0.031357501 104:0 137:7.5279799e-16 147:0.016376199 157:1.21623e-06 167:0.053909302 177:0 #
-5.1233413558476783578043978195637 21:0.043297701 31:0.170599 41:2.7470401e-06 84:0.047308698 94:0.16658799 104:2.74532e-06 127:0 137:0.00638942 147:0.052814301 157:0.032539502 167:0.122156 177:7.30049e-33 187:0 #
5.1233413558476783578043978195637 21:0.0060154898 31:0.061106998 84:0.0371763 94:0.029946299 104:4.1901201e-36 137:5.8958798e-16 147:0.0156393 157:1.07241e-06 167:0.0514821 177:0 #
5.1233413558476783578043978195637 21:0.0059441901 31:0.060382899 84:0.036735799 94:0.0295914 104:6.1444401e-33 137:5.7107702e-16 147:0.015454 157:1.06633e-06 167:0.050872099 177:0 #
-5.1233413558476783578043978195637 21:0.0035383501 31:0.407572 41:0.00710099 84:0.0089095598 94:0.40929601 104:6.0975399e-06 127:0 137:0 147:0.0088671297 157:0.00176614 167:0.40757799 177:1.03296e-10 187:0 #
-5.1233413558476783578043978195637 21:0.039640401 31:0.31530699 84:0.031762701 94:0.31801999 104:0.00516443 127:0.00072071899 137:0.032639898 147:0.00111537 167:0.32047001 177:8.7486501e-07 #
5.1225097341307659348785819020122 21:0.00173836 31:1.7895401 94:1.77824 104:0.013037 167:1.75064 177:0.040633999 #
-5.1233413558476783578043978195637 21:0.043704499 31:0.172189 41:2.8990301e-06 84:0.0477506 94:0.168143 104:2.8971201e-06 127:0 137:0.0064492798 147:0.053307202 157:0.032844901 167:0.123295 177:0 187:0 #
-5.1233413558476783578043978195637 21:0.0035609 31:0.41014999 41:0.0071455399 84:0.0089644901 94:0.41188601 104:5.9590402e-06 127:0 137:0 147:0.0089230202 157:0.00177748 167:0.41015601 177:1.02001e-10 187:0 #
5.1233413558476783578043978195637 21:0.00731041 31:0.103883 84:0.043352399 94:0.067840897 104:7.94003e-34 127:7.6034455e-42 137:0.0157612 147:0.0368811 157:0.0157653 167:0.0427857 177:2.1718305e-40 #
-5.1233413558476783578043978195637 21:0.00364875 31:0.42026201 41:0.0073215598 84:0.00918495 94:0.422041 104:6.0382599e-06 127:0 137:0 147:0.0091429297 157:0.00182137 167:0.420268 177:1.03685e-10 187:0 #
-1.1041065776239804563374491408467 21:0.0683726 31:0.108997 41:0.00076283899 84:0.063893199 94:0.113382 104:0.00085819903 127:2.6680723e-42 137:0.029085601 147:0.030706201 157:0.03576 167:0.082581103 177:3.5845215e-42 187:9.5708685e-43 #
5.1233413558476783578043978195637 21:0.0088739097 31:0.95408303 94:0.95612198 104:0.00683549 167:0.93470502 177:0.028252101 #
-5.1233413558476783578043978195637 21:0.0037422699 31:0.431081 41:0.0075109401 84:0.0094248801 94:0.43290201 104:6.6247599e-06 127:0 137:0 147:0.0093787704 157:0.00186784 167:0.43108699 177:1.11045e-10 187:0 #
-5.1233413558476783578043978195637 21:0.00370994 31:0.427333 41:0.0074451999 84:0.0093412399 94:0.42914101 104:6.3564198e-06 127:0 137:0 147:0.0092970096 157:0.0018518 167:0.42733899 177:1.07804e-10 187:0 #
-5.1233413558476783578043978195637 21:0.0037163801 31:0.42805499 41:0.0074574002 84:0.0093555599 94:0.429867 104:6.1867399e-06 127:0 137:0 147:0.0093125002 157:0.0018551101 167:0.42806101 177:1.05962e-10 187:0 #
5.1233413558476783578043978195637 21:0.00489522 31:0.0591392 84:0.035564799 94:0.0284696 104:0 137:1.45737e-06 147:0.0136546 157:0.00081772503 167:0.049560599 177:0 #
-5.1233413558476783578043978195637 21:0.00373282 31:0.42995 41:0.0074904501 84:0.0093970997 94:0.43177 104:6.2274198e-06 127:0 137:0 147:0.0093537597 157:0.00186331 167:0.429957 177:1.06541e-10 187:0 #
5.1233413558476783578043978195637 21:0.0071374201 31:0.96528101 94:0.96547598 104:0.0069423001 167:0.94535601 177:0.027062699 #
5.1233413558476783578043978195637 21:0.00684625 31:0.65250897 94:0.65469199 104:0.0046631098 167:0.63936001 177:0.019995 #
-5.1233413558476783578043978195637 21:0.0037693901 31:0.434201 41:0.0075652399 84:0.0094928602 94:0.43603599 104:6.6421599e-06 127:0 137:0 147:0.0094466303 157:0.00188139 167:0.43420801 177:1.11486e-10 187:0 #
-5.1233413558476783578043978195637 21:0.00388362 31:0.44731101 41:0.0077927099 84:0.0097758304 94:0.44920501 104:6.3919802e-06 127:0 137:0 147:0.0097313402 157:0.00193863 167:0.447317 177:1.09814e-10 187:0 #
5.1233413558476783578043978195637 21:0.0050274502 31:0.060738001 84:0.036527399 94:0.029238001 104:0 137:7.1757299e-08 147:0.0140234 157:0.00083855499 167:0.050903399 177:0 #
5.1233413558476783578043978195637 21:0.00504186 31:0.060870402 84:0.036621299 94:0.0292909 104:0 137:4.24073e-11 147:0.0140442 157:0.00084073999 167:0.051027302 177:0 #
-5.1233413558476783578043978195637 21:0.0039063301 31:0.449947 41:0.0078390399 84:0.0098349797 94:0.45185 104:6.6207899e-06 127:0 137:0 147:0.0097888997 157:0.00194987 167:0.44995299 177:1.12493e-10 187:0 #
5.1233413558476783578043978195637 21:0.00579572 31:0.069973603 84:0.042098701 94:0.033670601 104:0 137:1.8809401e-13 147:0.016143801 157:0.000966547 167:0.058658902 177:0 #
-5.1233413558476783578043978195637 21:0.043991499 31:0.17332099 41:2.90659e-06 84:0.0480644 94:0.169248 104:2.9046801e-06 127:0 137:0.0064916499 147:0.053657498 157:0.033060599 167:0.124106 177:0 187:0 #
-5.1233413558476783578043978195637 21:0.0077537601 31:0.89454299 41:0.0156125 84:0.019659501 94:0.89822298 104:2.6369e-05 127:0 137:0 147:0.0194762 157:0.00386376 167:0.89456898 177:5.6553701e-10 187:0 #
-5.1233413558476783578043978195637 21:0.0039257598 31:0.452171 41:0.0078775398 84:0.0098826196 94:0.45408601 104:6.53097e-06 127:0 137:0 147:0.0098371701 157:0.0019596301 167:0.452178 177:1.11656e-10 187:0 #
5.1233413558476783578043978195637 21:0.0045554899 31:0.58996397 94:0.59027898 104:0.0042401101 167:0.57781303 177:0.0167065 #
-5.1233413558476783578043978195637 21:0.0039325599 31:0.45294499 41:0.0078908196 84:0.0098988004 94:0.45486301 104:6.4534902e-06 127:0 137:0 147:0.0098538902 157:0.0019630601 167:0.45295101 177:1.10941e-10 187:0 #
5.1233413558476783578043978195637 21:0.0031938199 31:0.56236899 94:0.56150502 104:0.00405803 167:0.55056697 177:0.0149959 #
-5.1233413558476783578043978195637 21:0.0039327801 31:0.45301601 41:0.0078929598 84:0.0099037904 94:0.454932 104:6.8775198e-06 127:0 137:0 147:0.0098559298 157:0.00196297 167:0.45302299 177:1.15598e-10 187:0 #
5.1233413558476783578043978195637 21:0.0029973199 31:0.63191199 94:0.63034099 104:0.0045685 167:0.61855501 177:0.016354701 #
-5.1233413558476783578043978195637 21:0.0039789402 31:0.45835099 41:0.0079862401 84:0.0100217 94:0.460287 104:7.1207e-06 127:0 137:0 147:0.0099721598 157:0.0019859199 167:0.45835799 177:1.18774e-10 187:0 #
5.1233413558476783578043978195637 21:0.0026626701 31:0.65536898 94:0.65328699 104:0.00474475 167:0.641451 177:0.0165808 #
-5.1233413558476783578043978195637 21:0.0040763998 31:0.46952501 41:0.0081799002 84:0.010262 94:0.47151199 104:6.8014501e-06 127:0 137:0 147:0.0102147 157:0.0020348099 167:0.469531 177:1.16013e-10 187:0 #
5.1233413558476783578043978195637 21:0.00265822 31:0.563761 94:0.562343 104:0.0040760799 167:0.55184501 177:0.0145748 #
-5.1233413558476783578043978195637 21:0.0041076601 31:0.473106 41:0.0082419096 84:0.0103389 94:0.47510999 104:6.67214e-06 127:0 137:0 147:0.0102924 157:0.0020505099 167:0.47311199 177:1.14857e-10 187:0 #
-5.1233413558476783578043978195637 21:0.00419753 31:0.48345399 41:0.00842214 84:0.0105648 94:0.485502 104:6.79498e-06 127:0 137:0 147:0.0105175 157:0.0020953801 167:0.48346099 177:1.17214e-10 187:0 #
5.1233413558476783578043978195637 21:0.0051229801 31:0.0618499 84:0.037210699 94:0.029762199 104:0 137:4.42151e-11 147:0.0142701 157:0.00085427798 167:0.051848501 177:0 #
5.1233413558476783578043978195637 21:0.0047546201 31:0.067543402 84:0.028187601 94:0.044110399 104:3.43501e-35 127:1.1490647e-43 137:0.0102484 147:0.023979399 157:0.0102504 167:0.027819701 177:3.295854e-42 #
-5.1233413558476783578043978195637 21:0.044133499 31:0.173889 41:2.8321999e-06 84:0.048221301 94:0.169801 104:2.83042e-06 127:0 137:0.0065127201 147:0.053833101 157:0.033167601 167:0.124512 177:8.1692398e-33 187:0 #
4.409881692298114929176588994153e-05 21:0.0079942597 31:0.113594 84:0.047405198 94:0.074183203 104:7.1251199e-34 127:2.5769879e-42 137:0.0172348 147:0.040328801 157:0.017239099 167:0.046785701 177:7.3362179e-41 #
-5.1233413558476783578043978195637 21:0.00424209 31:0.488617 41:0.0085126804 84:0.01068 94:0.49068499 104:7.1557301e-06 127:0 137:0 147:0.0106302 157:0.0021174799 167:0.48862401 177:1.2145999e-10 187:0 #
5.0542336064390838146209716796875 21:0.00124424 31:1.28649 94:1.27836 104:0.0093723303 167:1.25853 177:0.0292062 #
-5.1233413558476783578043978195637 21:0.00425816 31:0.49044201 41:0.0085439701 84:0.0107179 94:0.49251899 104:6.9410899e-06 127:0 137:0 147:0.0106696 157:0.0021256199 167:0.49044901 177:1.1918801e-10 187:0 #
5.1233413558476783578043978195637 21:0.0052503399 31:0.063387901 84:0.038136099 94:0.0305021 104:0 137:1.30012e-13 147:0.0146248 157:0.000875536 167:0.053137898 177:0 #
-5.1233413558476783578043978195637 21:0.038344398 31:0.30463901 84:0.0306978 94:0.30729601 104:0.0049896399 127:0.00070573197 137:0.0315568 147:0.00109218 167:0.30962801 177:8.57256e-07 #
5.1233413558476783578043978195637 21:0.0036047699 31:0.051201198 84:0.021367701 94:0.033438198 104:7.1505799e-33 127:1.8834432e-40 137:0.0077690501 147:0.0181775 157:0.00777034 167:0.021089099 177:5.7658247e-40 #
-5.1233413558476783578043978195637 21:0.0046687899 31:0.53771001 41:0.00936691 84:0.0117489 94:0.53999001 104:7.3596002e-06 127:0 137:0 147:0.0116976 157:0.00233073 167:0.537718 177:1.27449e-10 187:0 #
-5.1233413558476783578043978195637 21:0.0042603202 31:0.490702 41:0.0085487198 84:0.0107244 94:0.49277899 104:7.04884e-06 127:0 137:0 147:0.0106754 157:0.00212665 167:0.49070901 177:1.2044001e-10 187:0 #
5.1233413558476783578043978195637 21:0.0036846099 31:0.052335899 84:0.021841301 94:0.034179199 104:8.6742601e-33 127:2.1825784e-40 137:0.0079412097 147:0.018580399 157:0.0079425396 167:0.0215564 177:6.6814191e-40 #
5.1233413558476783578043978195637 21:0.0065777102 31:0.70613301 94:0.70765197 104:0.0050589102 167:0.69179201 177:0.020918399 #
-5.1233413558476783578043978195637 21:0.0044798702 31:0.51597399 41:0.0089886896 84:0.0112756 94:0.51815897 104:7.2678099e-06 127:0 137:0 147:0.011225 157:0.0022363099 167:0.51598102 177:1.24788e-10 187:0 #
5.1233413558476783578043978195637 21:0.0065462701 31:0.90821898 94:0.90823197 104:0.0065341801 167:0.88943303 177:0.0253327 #
-5.1233413558476783578043978195637 21:0.0045110499 31:0.51958001 41:0.00905181 84:0.0113555 94:0.52178001 104:7.4581899e-06 127:0 137:0 147:0.0113036 157:0.0022518099 167:0.51958799 177:1.27212e-10 187:0 #
5.1233413558476783578043978195637 21:0.0062673502 31:0.772138 94:0.772861 104:0.0055443002 167:0.756248 177:0.022158001 #
-5.1233413558476783578043978195637 21:0.0045216898 31:0.52076399 41:0.0090716099 84:0.0113782 94:0.52297199 104:7.0851402e-06 127:0 137:0 147:0.0113289 157:0.0022573201 167:0.52077103 177:1.23109e-10 187:0 #
5.1233413558476783578043978195637 21:0.0053212601 31:0.677544 94:0.67799801 104:0.0048678 167:0.66358602 177:0.0192791 #
5.1233413558476783578043978195637 21:0.0053149899 31:0.064168498 84:0.038605802 94:0.0308777 104:0 137:4.9566799e-11 147:0.0148049 157:0.00088631798 167:0.053792302 177:0 #
-5.1233413558476783578043978195637 21:0.0046399701 31:0.53438699 41:0.0093089603 84:0.011676 94:0.53665298 104:7.2862099e-06 127:0 137:0 147:0.0116253 157:0.0023163599 167:0.53439498 177:1.26491e-10 187:0 #
-5.1233413558476783578043978195637 21:0.038665801 31:0.30747199 84:0.030975699 94:0.31012601 104:0.0050360798 127:0.00070497202 137:0.031833701 147:0.00109097 167:0.312507 177:8.52281e-07 #
5.1233413558476783578043978195637 21:0.00370374 31:0.052607499 84:0.0219546 94:0.034356602 104:8.42291e-33 127:2.2554599e-40 137:0.0079824198 147:0.018676801 157:0.00798376 167:0.0216683 177:6.9045899e-40 #
-5.1233413558476783578043978195637 21:0.0047234599 31:0.54407698 41:0.0094791697 84:0.0118932 94:0.54637802 104:8.0935097e-06 127:0 137:0 147:0.0118369 157:0.0023576999 167:0.54408503 177:1.36316e-10 187:0 #
-5.1233413558476783578043978195637 21:0.0047272299 31:0.54451501 41:0.0094868997 84:0.0119031 94:0.54681802 104:8.1426497e-06 127:0 137:0 147:0.0118465 157:0.00235956 167:0.54452401 177:1.3694799e-10 187:0 #
5.1233413558476783578043978195637 21:0.0037072799 31:0.052657198 84:0.021975299 94:0.034389101 104:5.2834999e-36 127:1.2891946e-43 137:0.0079899803 147:0.018694401 157:0.0079913 167:0.0216888 177:3.9376487e-43 #
-5.1233413558476783578043978195637 21:0.0048894901 31:0.56313097 41:0.0098097902 84:0.0123045 94:0.56551802 104:7.7338e-06 127:0 137:0 147:0.0122507 157:0.0024408901 167:0.56313902 177:1.3354901e-10 187:0 #
5.1233413558476783578043978195637 21:0.0037267699 31:0.052934598 84:0.0220911 94:0.034570299 104:8.5989601e-33 127:2.1948538e-40 137:0.0080320602 147:0.018792899 157:0.0080334004 167:0.021802999 177:6.719044e-40 #
5.1233413558476783578043978195637 21:0.0053238599 31:0.0642756 84:0.038670301 94:0.0309292 104:0 137:1.3678999e-13 147:0.0148296 157:0.00088780298 167:0.0538821 177:0 #
-5.1233413558476783578043978195637 21:0.0048991302 31:0.56423301 41:0.0098288199 84:0.0123279 94:0.566625 104:7.6699898e-06 127:0 137:0 147:0.0122746 157:0.0024457499 167:0.56423998 177:1.32908e-10 187:0 #
-5.1233413558476783578043978195637 21:0.00494147 31:0.56914997 41:0.0099152802 84:0.0124385 94:0.57156003 104:8.1196004e-06 127:0 137:0 147:0.012382 157:0.00246669 167:0.56915802 177:1.38415e-10 187:0 #
5.1233413558476783578043978195637 21:0.00385276 31:0.054724999 84:0.0228383 94:0.035739399 104:7.1941503e-36 127:1.9478049e-43 137:0.0083037 147:0.019428501 157:0.00830511 167:0.0225404 177:5.9555185e-43 #
5.1233413558476783578043978195637 21:0.0037718001 31:0.053574201 84:0.022358 94:0.0349879 104:6.16209e-36 127:1.5414283e-43 137:0.0081291096 147:0.01902 157:0.0081304703 167:0.022066399 177:4.6943499e-43 #
-5.1233413558476783578043978195637 21:0.0393967 31:0.31305999 84:0.031544801 94:0.31578499 104:0.0051275799 127:0.00072365499 137:0.0324255 147:0.00111995 167:0.318187 177:8.8337703e-07 #
5.1233413558476783578043978195637 21:0.0037892801 31:0.0538227 84:0.022461699 94:0.0351502 104:6.3161599e-36 127:1.6815582e-43 137:0.0081668003 147:0.0191082 157:0.0081681795 167:0.0221688 177:5.1567783e-43 #
-5.1233413558476783578043978195637 21:0.00503841 31:0.58032697 41:0.0101102 84:0.0126836 94:0.58278298 104:8.3803297e-06 127:0 137:0 147:0.0126252 157:0.0025150301 167:0.58033502 177:1.42217e-10 187:0 #
5.1233413558476783578043978195637 21:0.0038439401 31:0.054600101 84:0.0227862 94:0.035657901 104:8.0575898e-36 127:2.1720126e-43 137:0.0082847401 147:0.0193842 157:0.0082861604 167:0.0224889 177:6.6421547e-43 #
-5.1233413558476783578043978195637 21:0.0051595899 31:0.594208 41:0.0103505 84:0.0129812 94:0.59672898 104:7.8700295e-06 127:0 137:0 147:0.0129264 157:0.0025758799 167:0.59421498 177:1.3738601e-10 187:0 #
5.1233413558476783578043978195637 21:0.0038592501 31:0.054818701 84:0.0228773 94:0.035800599 104:1.33535e-32 127:4.5253112e-40 137:0.0083178598 147:0.019461799 157:0.0083193304 167:0.022578901 177:1.3863494e-39 #
-5.1233413558476783578043978195637 21:0.066630103 31:0.26026601 41:0.0022058899 84:0.0972891 94:0.231813 104:6.9249303e-29 127:0.000177394 137:0.028070301 147:0.089387201 157:0.081985697 167:0.12915 177:0.000268826 187:6.2517502e-05 #
-5.1233413558476783578043978195637 21:0.0052662701 31:0.60656202 41:0.0105671 84:0.0132562 94:0.60913002 104:8.6680502e-06 127:0 137:0 147:0.0131959 157:0.00262882 167:0.60657001 177:1.47468e-10 187:0 #
-5.1233413558476783578043978195637 21:0.0053157802 31:0.61217999 41:0.0106633 84:0.0133727 94:0.614779 104:7.9728998e-06 127:0 137:0 147:0.0133172 157:0.0026539201 167:0.61218798 177:1.39847e-10 187:0 #
5.1233413558476783578043978195637 21:0.0039116801 31:0.055562198 84:0.023187701 94:0.036286201 104:8.3037297e-36 127:2.2000386e-43 137:0.0084307203 147:0.0197258 157:0.0084321704 167:0.0228852 177:6.7402456e-43 #
-5.1233413558476783578043978195637 21:0.0053614699 31:0.61748397 41:0.0107565 84:0.0134917 94:0.62010098 104:8.4271196e-06 127:0 137:0 147:0.013433 157:0.0026765401 167:0.61749202 177:1.4537101e-10 187:0 #
5.1233413558476783578043978195637 21:0.00392034 31:0.055684902 84:0.023238899 94:0.036366399 104:7.6649098e-36 127:2.0318828e-43 137:0.0084493496 147:0.0197693 157:0.0084507903 167:0.0229358 177:6.2357782e-43 #
-5.1233413558476783578043978195637 21:0.00541898 31:0.62405699 41:0.0108701 84:0.0136316 94:0.626706 104:8.0589898e-06 127:0 137:0 147:0.0135755 157:0.00270547 167:0.62406498 177:1.4174099e-10 187:0 #
-5.1233413558476783578043978195637 21:0.0062464699 31:0.71957302 41:0.0125381 84:0.015734499 94:0.72261202 104:1.13267e-05 127:0 137:0 147:0.0156557 157:0.00311759 167:0.719585 177:1.8648e-10 187:0 #
5.1233413558476783578043978195637 21:0.0039318101 31:0.055848502 84:0.0233071 94:0.0364732 104:8.8387999e-36 127:2.4662853e-43 137:0.0084741497 147:0.019827399 157:0.0084756203 167:0.023003099 177:7.5389857e-43 #
-5.1233413558476783578043978195637 21:0.0054853102 31:0.63167697 41:0.0110024 84:0.0137966 94:0.63436002 104:7.9813199e-06 127:0 137:0 147:0.0137411 157:0.00273868 167:0.63168502 177:1.4124101e-10 187:0 #
5.1233413558476783578043978195637 21:0.00393868 31:0.0559473 84:0.0233483 94:0.036537599 104:1.18355e-35 127:6.375908e-43 137:0.0084891003 147:0.019862499 157:0.0084906099 167:0.0230437 177:1.3270296e-42 #
-5.1233413558476783578043978195637 21:0.00549309 31:0.63259798 41:0.0110189 84:0.0138186 94:0.63528299 104:8.2244596e-06 127:0 137:0 147:0.0137614 157:0.00274245 167:0.63260603 177:1.44074e-10 187:0 #
5.1233413558476783578043978195637 21:0.0045877299 31:0.77622098 94:0.77521002 104:0.0055986699 167:0.75996703 177:0.0208412 #
5.1233413558476783578043978195637 21:0.00538438 31:0.91022497 94:0.90904403 104:0.0065656202 167:0.89119399 177:0.0244157 #
5.1233413558476783578043978195637 21:0.0039639799 31:0.0563072 84:0.0234985 94:0.036772601 104:1.58655e-32 127:5.7293769e-40 137:0.0085437 147:0.019990301 157:0.0085452301 167:0.023192 177:1.75523e-39 #
-5.1233413558476783578043978195637 21:0.0061045401 31:0.70300299 41:0.0122451 84:0.0153557 94:0.70598799 104:9.0325002e-06 127:0 137:0 147:0.0152928 157:0.0030477699 167:0.70301199 177:1.5821899e-10 187:0 #
5.1233413558476783578043978195637 21:0.0052401698 31:0.85462397 94:0.85370201 104:0.0061617498 167:0.836779 177:0.0230847 #
-5.1233413558476783578043978195637 21:0.00621077 31:0.71526903 41:0.0124593 84:0.015626 94:0.71830302 104:9.48873e-06 127:0 137:0 147:0.01556 157:0.0031006599 167:0.71527803 177:1.6454001e-10 187:0 #
5.1233413558476783578043978195637 21:0.0045592999 31:0.81011498 94:0.808828 104:0.0058471402 167:0.79315197 177:0.0215226 #
-5.1233413558476783578043978195637 21:0.0062382501 31:0.71837699 41:0.0125124 84:0.0156898 94:0.72142899 104:9.0111598e-06 127:0 137:0 147:0.015627 157:0.00311464 167:0.71838599 177:1.58986e-10 187:0 #
-5.1233413558476783578043978195637 21:0.0062424699 31:0.71898502 41:0.0125253 84:0.015712099 94:0.72202998 104:1.0142e-05 127:0 137:0 147:0.015641499 157:0.00311618 167:0.71899498 177:1.72549e-10 187:0 #
5.1233413558476783578043978195637 21:0.00452305 31:0.81988102 94:0.81848502 104:0.00591848 167:0.80267102 177:0.021733001 #
5.1233413558476783578043978195637 21:0.0054990002 31:0.066390403 84:0.0399426 94:0.0319467 104:0 137:1.50396e-13 147:0.0153174 157:0.00091702101 167:0.055654898 177:0 #
5.1233413558476783578043978195637 21:0.00259937 31:0.62503201 94:0.62310702 104:0.0045242198 167:0.61176699 177:0.015864201 #
5.1233413558476783578043978195637 21:0.0040939101 31:0.78044897 94:0.77890599 104:0.0056368099 167:0.76402599 177:0.0205174 #
-5.1233413558476783578043978195637 21:0.042367399 31:0.33795801 84:0.0340183 94:0.340772 104:0.00553559 127:0.000747332 137:0.034928001 147:0.0011565 167:0.34349301 177:9.0071302e-07 #
-5.1233413558476783578043978195637 21:0.00651616 31:0.75057602 41:0.013077 84:0.016407499 94:0.75375098 104:1.12124e-05 127:0 137:0 147:0.016329501 157:0.0032525 167:0.75058699 177:1.87346e-10 187:0 #
5.1233413558476783578043978195637 21:0.0042488901 31:1.26318 94:1.25827 104:0.0091586299 167:1.23624 177:0.0311886 #
-5.1233413558476783578043978195637 21:0.0069301501 31:0.79806399 41:0.0139006 84:0.0174309 94:0.80145401 104:1.01053e-05 127:0 137:0 147:0.0173606 157:0.0034600401 167:0.79807401 177:1.7713001e-10 187:0 #
5.1233413558476783578043978195637 21:0.00375266 31:1.07582 94:1.07177 104:0.0077982298 167:1.0529 177:0.026673 #
-5.1233413558476783578043978195637 21:0.0071126102 31:0.81903499 41:0.014265 84:0.017885899 94:0.82251698 104:9.9933304e-06 127:0 137:0 147:0.0178164 157:0.00355133 167:0.81904501 177:1.76912e-10 187:0 #
5.1233413558476783578043978195637 21:0.0032544199 31:1.0393699 94:1.03509 104:0.0075394302 167:1.0171601 177:0.025462 #
-5.1233413558476783578043978195637 21:0.0072328998 31:0.83287001 41:0.0145057 84:0.0181868 94:0.83641201 104:1.00082e-05 127:0 137:0 147:0.0181171 157:0.0036114701 167:0.83288002 177:1.7799e-10 187:0 #
5.1233413558476783578043978195637 21:0.00325153 31:1.57652 94:1.56831 104:0.0114602 167:1.54255 177:0.037224501 #
-5.1233413558476783578043978195637 21:0.0074078501 31:0.85297799 41:0.0148552 84:0.018623101 94:0.85660797 104:9.9109402e-06 127:0 137:0 147:0.018554199 157:0.00369899 167:0.852988 177:1.77881e-10 187:0 #
5.1233413558476783578043978195637 21:0.0031560501 31:1.19175 94:1.18625 104:0.0086529702 167:1.16618 177:0.028725199 #
-5.1233413558476783578043978195637 21:0.0075696502 31:0.87172598 41:0.015184 84:0.019041199 94:0.87542802 104:1.1211e-05 127:0 137:0 147:0.018963199 157:0.00377924 167:0.87173802 177:1.95364e-10 187:0 #
5.1233413558476783578043978195637 21:0.0031087401 31:0.98501301 94:0.980977 104:0.0071445699 167:0.96395999 177:0.024162199 #
-5.1233413558476783578043978195637 21:0.0077307699 31:0.89053297 41:0.0155164 84:0.019470699 94:0.89429599 104:1.3766e-05 127:0 137:0 147:0.0193749 157:0.00385853 167:0.89054698 177:2.27557e-10 187:0 #
5.1233413558476783578043978195637 21:0.00308065 31:1.09367 94:1.08882 104:0.0079381904 167:1.07024 177:0.026514299 #
-5.1233413558476783578043978195637 21:0.00778348 31:0.89679903 41:0.015629301 84:0.019622199 94:0.90057403 104:1.5653201e-05 127:0 137:0 147:0.0195133 157:0.0038839399 167:0.896815 177:2.4974001e-10 187:0 #
5.1233413558476783578043978195637 21:0.00287735 31:1.04847 94:1.04374 104:0.0076113199 167:1.026 177:0.025348799 #
-5.1233413558476783578043978195637 21:0.0078461803 31:0.90426803 41:0.015764199 84:0.019803699 94:0.90805697 104:1.80402e-05 127:0 137:0 147:0.0196783 157:0.0039141201 167:0.90428603 177:4.4578399e-10 187:0 #
5.1233413558476783578043978195637 31:1.11454 84:0.102058 94:1.01248 167:1.11454 #
-5.1233413558476783578043978195637 21:0.0079180198 31:0.91165203 41:0.015875701 84:0.019898901 94:0.91553599 104:9.9463296e-06 127:0 137:0 147:0.0198297 157:0.0039540599 167:0.91166198 177:1.8172799e-10 187:0 #
5.1233413558476783578043978195637 21:0.00260437 31:1.17123 94:1.16532 104:0.0085113002 167:1.1460201 177:0.0278106 #
-5.1233413558476783578043978195637 21:0.0079078004 31:0.91185302 41:0.015905701 84:0.020005699 94:0.91563803 104:2.2640301e-05 127:0 137:0 147:0.019848401 157:0.0039426298 167:0.91187501 177:5.2539201e-10 187:0 #
-5.1233413558476783578043978195637 21:0.0081026703 31:0.93292201 41:0.0162463 84:0.020364 94:0.93689698 104:1.02754e-05 127:0 137:0 147:0.0202925 157:0.0040462199 167:0.93293297 177:1.8683199e-10 187:0 #
-5.1233413558476783578043978195637 21:0.0087820804 31:1.01192 41:0.0176368 84:0.0221455 94:1.01617 104:1.8238599e-05 127:0 137:0 147:0.022018701 157:0.0043819598 167:1.01194 177:4.4654e-10 187:0 #
5.1233413558476783578043978195637 21:0.0021979299 31:1.00599 94:1.00087 104:0.0073109502 167:0.98432302 177:0.023860199 #
-5.1233413558476783578043978195637 21:0.0081822705 31:0.94207698 41:0.0164055 84:0.020563001 94:0.946091 104:1.02755e-05 127:0 137:0 147:0.020491499 157:0.0040860199 167:0.94208699 177:1.8785e-10 187:0 #
5.1233413558476783578043978195637 21:0.0056226701 31:0.067883797 84:0.0408413 94:0.032665201 104:0 137:1.65484e-13 147:0.015661901 157:0.00093766302 167:0.056906998 177:0 #
5.1233413558476783578043978195637 21:0.00106087 31:0.99343503 94:0.98725998 104:0.0072359201 167:0.97185898 177:0.0226369 #
5.1233413558476783578043978195637 21:0.0025100401 31:1.37281 94:1.36533 104:0.0099839503 167:1.34316 177:0.032151502 #
-5.1233413558476783578043978195637 21:0.0081756897 31:0.94303203 41:0.0164552 84:0.020711301 94:0.946926 104:2.60699e-05 127:0 137:0 147:0.02053 157:0.0040748701 167:0.94305801 177:5.65405e-10 187:0 #
-5.1233413558476783578043978195637 21:0.0082340902 31:0.94805402 41:0.016509799 84:0.0206942 94:0.95209301 104:1.04352e-05 127:0 137:0 147:0.0206216 157:0.0041118502 167:0.94806403 177:1.8976901e-10 187:0 #
5.1233413558476783578043978195637 21:0.00109852 31:1.02318 94:1.01683 104:0.00745248 167:1.00096 177:0.023319701 #
-5.1233413558476783578043978195637 21:0.0082835602 31:0.95479703 41:0.0166474 84:0.020919399 94:0.95878899 104:2.01723e-05 127:0 137:0 147:0.0207792 157:0.00413174 167:0.954817 177:4.9170401e-10 187:0 #
5.1233413558476783578043978195637 21:0.0010922001 31:1.03622 94:1.02977 104:0.0075478 167:1.01372 177:0.023599699 #
5.1233413558476783578043978195637 31:1.10403 84:0.101454 94:1.00258 167:1.10403 #
-5.1233413558476783578043978195637 21:0.0083559696 31:0.96219999 41:0.0167583 84:0.0210115 94:0.96629101 104:1.1636e-05 127:0 137:0 147:0.020930501 157:0.0041721901 167:0.96221203 177:2.05791e-10 187:0 #
-5.1233413558476783578043978195637 21:0.0083942097 31:0.96661597 41:0.0168355 84:0.021108801 94:0.970725 104:1.1807e-05 127:0 137:0 147:0.021026701 157:0.0041912301 167:0.96662802 177:2.0824099e-10 187:0 #
5.1233413558476783578043978195637 21:0.00246247 31:1.55373 94:1.54489 104:0.0113054 167:1.52013 177:0.0360693 #
-5.1233413558476783578043978195637 21:0.0086399801 31:0.99527502 41:0.0173415 84:0.0217613 94:0.999479 104:1.54475e-05 127:0 137:0 147:0.021653799 157:0.0043123001 167:0.99528998 177:2.5543401e-10 187:0 #
5.1233413558476783578043978195637 21:0.00114328 31:1.04029 94:1.03385 104:0.0075766998 167:1.0177 177:0.023731001 #
-5.1233413558476783578043978195637 21:0.0087118903 31:1.00325 41:0.0174747 84:0.021913201 94:1.0075099 104:1.27761e-05 127:0 137:0 147:0.0218242 157:0.00434958 167:1.00327 177:2.22847e-10 187:0 #
5.1233413558476783578043978195637 21:0.0010849501 31:1.04669 94:1.04015 104:0.00762429 167:1.02395 177:0.0238229 #
-5.1233413558476783578043978195637 21:0.0087459702 31:1.00822 41:0.017581301 84:0.0220991 94:1.01243 104:2.2439001e-05 127:0 137:0 147:0.0219431 157:0.0043618199 167:1.00824 177:5.3600702e-10 187:0 #
5.1233413558476783578043978195637 21:0.00116072 31:1.0783499 94:1.07166 104:0.0078543099 167:1.05493 177:0.024579801 #
-5.1233413558476783578043978195637 21:0.0087500596 31:1.00878 41:0.017592801 84:0.022118 94:1.01298 104:2.32691e-05 127:0 137:0 147:0.0219562 157:0.0043634502 167:1.0088 177:5.4251498e-10 187:0 #
5.1233413558476783578043978195637 21:0.00111663 31:1.07769 94:1.07095 104:0.00785009 167:1.05428 177:0.0245283 #
-5.1233413558476783578043978195637 21:0.0087570501 31:1.00956 41:0.0176058 84:0.0221329 94:1.01377 104:2.3026099e-05 127:0 137:0 147:0.0219728 157:0.0043670698 167:1.00958 177:5.39012e-10 187:0 #
5.1233413558476783578043978195637 21:0.00114469 31:1.08789 94:1.08111 104:0.0079241497 167:1.06426 177:0.0247752 #
5.1233413558476783578043978195637 21:0.00193083 31:1.15583 94:1.14935 104:0.0084085902 167:1.1308399 177:0.026918599 #
-5.1233413558476783578043978195637 21:0.0087697096 31:1.00966 41:0.0175814 84:0.0220342 94:1.01397 104:1.05269e-05 127:0 137:0 147:0.021961 157:0.0043796101 167:1.00967 177:1.9419601e-10 187:0 #
5.1233413558476783578043978195637 21:0.00119277 31:1.10934 94:1.10245 104:0.0080800001 167:1.08524 177:0.025284201 #
5.1233413558476783578043978195637 21:0.00112183 31:1.13925 94:1.1320699 104:0.0082993601 167:1.11449 177:0.0258804 #
-5.1233413558476783578043978195637 21:0.0088245496 31:1.01597 41:0.017690999 84:0.0221713 94:1.0203 104:1.0526e-05 127:0 137:0 147:0.0220981 157:0.0044070301 167:1.01598 177:1.95519e-10 187:0 #
-5.1233413558476783578043978195637 21:0.0088997101 31:1.02621 41:0.0179001 84:0.0225133 94:1.03047 104:2.52995e-05 127:0 137:0 147:0.022337399 157:0.0044372701 167:1.02624 177:5.8052602e-10 187:0 #
5.1233413558476783578043978195637 21:0.00118552 31:1.15965 94:1.15239 104:0.00844739 167:1.13446 177:0.026380001 #
-5.1233413558476783578043978195637 21:0.0094751604 31:1.0908099 41:0.018993201 84:0.0238003 94:1.09547 104:1.0765e-05 127:0 137:0 147:0.0237254 157:0.00473222 167:1.09082 177:2.0334701e-10 187:0 #
5.1233413558476783578043978195637 21:0.00126107 31:1.19115 94:1.18374 104:0.0086762197 167:1.16528 177:0.027132601 #
-5.1233413558476783578043978195637 21:0.0104115 31:1.19932 41:0.0208961 84:0.026220299 94:1.20438 104:1.8341099e-05 127:0 137:0 147:0.026092701 157:0.00519663 167:1.19933 177:4.52298e-10 187:0 #
5.1233413558476783578043978195637 21:0.00114245 31:1.2013201 94:1.19371 104:0.0087521598 167:1.17521 177:0.0272569 #
-5.1233413558476783578043978195637 21:0.0095841503 31:1.10342 41:0.019214001 84:0.024080301 94:1.10813 104:1.14852e-05 127:0 137:0 147:0.024000401 157:0.0047863498 167:1.10344 177:2.10868e-10 187:0 #
5.1233413558476783578043978195637 21:0.0012275201 31:1.20529 94:1.19774 104:0.0087799001 167:1.1791101 177:0.0274151 #
-5.1233413558476783578043978195637 21:0.0096381903 31:1.11285 41:0.0194401 84:0.0245247 94:1.11737 104:4.1126201e-05 127:0 137:0 147:0.024238801 157:0.0047986298 167:1.11289 177:8.49739e-10 187:0 #
5.1233413558476783578043978195637 21:0.00116311 31:1.21482 94:1.20713 104:0.0088503696 167:1.18841 177:0.027569599 #
-5.1233413558476783578043978195637 21:0.0099797295 31:1.15311 41:0.020159001 84:0.025472401 94:1.15772 104:5.0116902e-05 127:0 137:0 147:0.0251239 157:0.0049649202 167:1.15316 177:9.5285502e-10 187:0 #
5.1233413558476783578043978195637 21:0.001421 31:1.2347701 94:1.2272 104:0.0089922501 167:1.20797 177:0.028220201 #
-5.1233413558476783578043978195637 21:0.0102203 31:1.17723 41:0.020509999 84:0.025732599 94:1.18221 104:1.74097e-05 127:0 137:0 147:0.025611499 157:0.0051015001 167:1.17725 177:4.2637199e-10 187:0 #
5.1233413558476783578043978195637 21:0.00118149 31:1.24457 94:1.23668 104:0.0090672597 167:1.21751 177:0.0282363 #
-5.1233413558476783578043978195637 21:0.0101598 31:1.17681 41:0.020629 84:0.0262109 94:1.1813101 104:7.7626202e-05 127:0 137:0 147:0.025670299 157:0.0050412202 167:1.17689 177:1.07689e-09 187:0 #
-5.1233413558476783578043978195637 21:0.068927601 31:0.26921499 41:0.00228168 84:0.100636 94:0.239788 104:7.7600198e-26 127:0.000186709 137:0.029037099 147:0.092459202 157:0.084802598 167:0.133589 177:0.000282942 187:6.5800501e-05 #
4.5689758373578115424606949090958 21:0.0068570701 31:0.097428001 84:0.040658899 94:0.0636262 104:3.1710799e-34 127:1.6273279e-41 137:0.0147823 147:0.034589302 157:0.0147857 167:0.040127698 177:4.9859601e-41 #
5.1233413558476783578043978195637 21:0.0037087 31:0.90969598 94:0.90681899 104:0.0065863202 167:0.89040601 177:0.022998599 #
5.1233413558476783578043978195637 21:0.00087673601 31:0.660999 94:0.65706301 104:0.0048120599 167:0.646671 177:0.015204 #
-5.1233413558476783578043978195637 21:0.0103306 31:1.18996 41:0.020732399 84:0.026013199 94:1.19499 104:1.7885501e-05 127:0 137:0 147:0.025888899 157:0.0051564099 167:1.18998 177:4.3953499e-10 187:0 #
-5.1233413558476783578043978195637 21:0.0106937 31:1.23166 41:0.021456599 84:0.026915601 94:1.2368799 104:1.7370299e-05 127:0 137:0 147:0.026794801 157:0.0053382199 167:1.23168 177:4.25047e-10 187:0 #
5.1233413558476783578043978195637 21:0.00340496 31:0.72298598 94:0.72116297 104:0.00522738 167:0.70770401 177:0.018686499 #
-5.1233413558476783578043978195637 21:0.0432082 31:0.344836 84:0.034706 94:0.34768999 104:0.00564828 127:0.00075804797 137:0.035628699 147:0.00117309 167:0.35048401 177:9.1427898e-07 #
-5.1233413558476783578043978195637 21:0.044820201 31:0.357728 84:0.036002699 94:0.360686 104:0.0058594402 127:0.00078572001 137:0.036959 147:0.0012159901 167:0.36358601 177:9.5764699e-07 #
5.1233413558476783578043978195637 21:0.0046518799 31:0.066084303 84:0.0275787 94:0.043157499 104:3.46557e-35 127:1.2891946e-43 137:0.010027 147:0.0234614 157:0.010029 167:0.027218699 177:3.7036318e-42 #
-5.1233413558476783578043978195637 21:0.044442002 31:0.354316 84:0.035670001 94:0.35728401 104:0.0058034901 127:0.00078849698 137:0.036629599 147:0.00122034 167:0.360118 177:9.6755196e-07 #
5.1233413558476783578043978195637 21:0.0030799799 31:0.71769899 94:0.71558499 104:0.0051936 167:0.702483 177:0.018295299 #
-5.1233413558476783578043978195637 21:0.0480479 31:0.38385701 84:0.038622499 94:0.38699499 104:0.00628749 127:0.000833506 137:0.039636798 147:0.00129003 167:0.39014301 177:1.0270001e-06 #
-5.1233413558476783578043978195637 21:0.045449302 31:0.362472 84:0.036487699 94:0.36549601 104:0.0059370999 127:0.00080338202 137:0.037465401 147:0.0012434 167:0.36840799 177:9.8878002e-07 #
-5.1233413558476783578043978195637 21:0.046003301 31:0.366548 84:0.0369073 94:0.36963999 104:0.0060038101 127:0.00082136999 137:0.037906799 147:0.00127131 167:0.37255099 177:1.02013e-06 #
-5.1233413558476783578043978195637 21:0.046147101 31:0.36833701 84:0.037069999 94:0.37138101 104:0.0060332301 127:0.00080852699 137:0.038054001 147:0.00125134 167:0.37437001 177:9.9260797e-07 #
5.1233413558476783578043978195637 21:0.0039691101 31:0.056378499 84:0.0235283 94:0.036819302 104:9.2382398e-36 127:2.5503632e-43 137:0.0085545704 147:0.020015599 157:0.0085560502 167:0.0232214 177:7.8052324e-43 #
5.1233413558476783578043978195637 21:0.00412247 31:0.058557801 84:0.0244378 94:0.0382425 104:1.11899e-35 127:3.4612072e-43 137:0.0088852104 147:0.020789299 157:0.0088867797 167:0.024119001 177:1.0607829e-42 #
-5.1233413558476783578043978195637 21:0.069027498 31:0.26960099 41:0.0022849401 84:0.100781 94:0.240133 104:7.7811999e-29 127:0.00018746599 137:0.029079 147:0.092591703 157:0.084923901 167:0.133781 177:0.00028409 187:6.6067303e-05 #
5.1233413558476783578043978195637 21:0.00397082 31:0.0564036 84:0.0235388 94:0.0368356 104:1.08984e-35 127:3.0968696e-43 137:0.0085583404 147:0.020024501 157:0.00855985 167:0.0232317 177:9.4727776e-43 #
-5.1233413558476783578043978195637 21:0.0110005 31:1.2677799 41:0.022100899 84:0.027763 94:1.2731 104:2.50431e-05 127:0 137:0 147:0.027588701 157:0.0054878001 167:1.26781 177:4.0522499e-10 187:0 #
-5.1233413558476783578043978195637 21:0.0518304 31:0.41574001 84:0.0417853 94:0.418975 104:0.0068099899 127:0.00085931103 137:0.042831302 147:0.00132982 167:0.42254901 177:1.03906e-06 #
5.1233413558476783578043978195637 21:0.0047598402 31:0.067615598 84:0.0282178 94:0.044157598 104:2.73475e-35 127:9.0383751e-43 137:0.0102594 147:0.024005 157:0.0102614 167:0.027849499 177:2.7647619e-42 #
-5.1233413558476783578043978195637 21:0.0493639 31:0.393159 84:0.039591301 94:0.396492 104:0.0064396602 127:0.00088533701 137:0.040668398 147:0.00137047 167:0.399598 177:1.1204399e-06 #
5.1233413558476783578043978195637 21:0.0029462101 31:0.68409401 94:0.68208998 104:0.0049502398 167:0.66959202 177:0.0174489 #
5.1233413558476783578043978195637 21:0.0039926702 31:0.056715898 84:0.023669099 94:0.0370395 104:1.9179599e-32 127:6.1459549e-41 137:0.0086056702 147:0.020135401 157:0.0086072497 167:0.0233602 177:1.7635397e-39 #
-5.1233413558476783578043978195637 21:0.0494464 31:0.39601299 84:0.039818902 94:0.39915401 104:0.00648676 127:0.00083424599 137:0.0408343 147:0.00129105 167:0.40249899 177:1.01151e-06 #
5.1233413558476783578043978195637 21:0.0029215999 31:0.772183 94:0.76951098 104:0.0055936999 167:0.75575399 177:0.019350599 #
-5.1233413558476783578043978195637 21:0.050938498 31:0.40742001 84:0.0409806 94:0.41070399 104:0.00667352 127:0.00087241997 137:0.0420422 147:0.00135031 167:0.414092 177:1.0815201e-06 #
5.1233413558476783578043978195637 21:0.00272615 31:0.97156298 94:0.967237 104:0.0070521301 167:0.95074999 177:0.0235392 #
-5.1233413558476783578043978195637 21:0.068201199 31:0.108724 41:0.00076092599 84:0.063732997 94:0.113097 104:0.00085604697 127:2.8614515e-42 137:0.0290126 147:0.030629201 157:0.035670299 167:0.082373999 177:3.8437617e-42 187:1.0271518e-42 #
-5.1233413558476783578043978195637 21:0.0509561 31:0.40834901 84:0.041052699 94:0.41156301 104:0.0066888598 127:0.00085385499 137:0.042091899 147:0.00132142 167:0.41503701 177:1.03805e-06 #
5.1233413558476783578043978195637 21:0.0040355502 31:0.057324301 84:0.023923 94:0.037436798 104:1.7455201e-32 127:4.8993598e-41 137:0.0086980099 147:0.020351401 157:0.0086995801 167:0.023610899 177:1.4054897e-39 #
-5.1233413558476783578043978195637 21:0.0112376 31:1.29451 41:0.0225552 84:0.0283037 94:1.29998 104:2.0084501e-05 127:0 137:0 147:0.0281641 157:0.0056088199 167:1.29453 177:5.0271298e-10 187:0 #
5.1233413558476783578043978195637 21:0.00246551 31:1.9399101 94:1.92825 104:0.0141241 167:1.89785 177:0.044531502 #
-5.1233413558476783578043978195637 21:0.052358702 31:0.41914999 84:0.042150401 94:0.42249301 104:0.0068657198 127:0.00088786898 137:0.043230899 147:0.00137422 167:0.42601499 177:1.10116e-06 #
5.1233413558476783578043978195637 21:0.0045722602 31:0.064950697 84:0.0271057 94:0.042417299 104:2.52203e-35 127:8.3657518e-43 137:0.0098551102 147:0.023058999 157:0.0098569803 167:0.0267519 177:2.5615736e-42 #
-5.1233413558476783578043978195637 21:0.0112929 31:1.30211 41:0.022711501 84:0.028561801 94:1.30752 104:3.1582102e-05 127:0 137:0 147:0.0283422 157:0.0056307199 167:1.30214 177:8.0763601e-10 187:0 #
-5.1233413558476783578043978195637 21:0.066721201 31:0.108373 41:0.0013194199 84:0.0674752 94:0.108279 104:0.00065966701 127:0 137:0.031854101 147:0.030721501 157:0.035527602 167:0.078310303 177:0 187:0 #
5.1233413558476783578043978195637 21:0.00218332 31:1.32523 94:1.31778 104:0.0096414601 167:1.29658 177:0.0308381 #
5.1233413558476783578043978195637 21:0.00102831 31:0.82994998 94:0.82493502 104:0.0060430798 167:0.81194901 177:0.019029601 #
-5.1233413558476783578043978195637 21:0.0113665 31:1.31221 41:0.0229189 84:0.028903799 94:1.3175499 104:4.6659599e-05 127:0 137:0 147:0.0285789 157:0.0056599998 167:1.31226 177:6.4609401e-10 187:0 #
5.1233413558476783578043978195637 21:0.00097516098 31:0.83818901 94:0.83306003 104:0.0061039799 167:0.81999803 177:0.0191659 #
-5.1233413558476783578043978195637 21:0.0114173 31:1.31429 41:0.0228821 84:0.028667901 94:1.31991 104:1.19323e-05 127:0 137:0 147:0.028584899 157:0.0057027098 167:1.3142999 177:2.37981e-10 187:0 #
-5.1233413558476783578043978195637 21:0.011619 31:1.33883 41:0.0233353 84:0.029302601 94:1.34446 104:2.4445e-05 127:0 137:0 147:0.029132601 157:0.00579732 167:1.33886 177:6.2669298e-10 187:0 #
-5.1233413558476783578043978195637 21:0.0115586 31:1.34281 41:0.0236168 84:0.029833 94:1.34791 104:0.00024974899 127:0 137:0 147:0.0293328 157:0.0057167201 167:1.34294 177:3.16712e-07 187:0 #
5.1233413558476783578043978195637 21:0.0010255 31:0.85660702 94:0.851394 104:0.0062376899 167:0.83802098 177:0.019610999 #
-5.1233413558476783578043978195637 21:0.052778799 31:0.423087 84:0.042530801 94:0.42640501 104:0.0069303 127:0.00088125799 137:0.043603301 147:0.00136391 167:0.43001601 177:1.08216e-06 #
-5.1233413558476783578043978195637 21:0.0117364 31:1.35114 41:0.0235261 84:0.0294808 94:1.3569 104:1.33945e-05 127:0 137:0 147:0.029387601 157:0.0058615198 167:1.35115 177:2.5011401e-10 187:0 #
5.1233413558476783578043978195637 21:0.00098894595 31:0.85473901 94:0.84950298 104:0.0062245899 167:0.83618802 177:0.0195399 #
5.1233413558476783578043978195637 21:0.00102871 31:0.87677199 94:0.87141597 104:0.0063848398 167:0.85774601 177:0.0200553 #
-5.1233413558476783578043978195637 21:0.0122975 31:1.4165 41:0.024679201 84:0.030964499 94:1.4225 104:2.11525e-05 127:0 137:0 147:0.030817401 157:0.0061382102 167:1.41653 177:5.3834698e-10 187:0 #
-5.1233413558476783578043978195637 21:0.052939702 31:0.42361099 84:0.0426041 94:0.42700699 104:0.0069387499 127:0.00090228801 137:0.043701999 147:0.00139659 167:0.43054801 177:1.12648e-06 #
-5.1233413558476783578043978195637 21:0.0125911 31:1.44933 41:0.0252317 84:0.031607602 94:1.45553 104:1.24341e-05 127:0 137:0 147:0.031521101 157:0.0062893499 167:1.44934 177:2.4334801e-10 187:0 #
-5.1233413558476783578043978195637 21:0.053672601 31:0.42991099 84:0.043226 94:0.43331501 104:0.0070420201 127:0.00090435601 137:0.044326399 147:0.00139976 167:0.43695199 177:1.12405e-06 #
5.1233413558476783578043978195637 21:0.00408684 31:0.0580533 84:0.0242272 94:0.037912998 104:1.63548e-35 127:9.4727776e-43 137:0.00880861 147:0.0206102 157:0.0088102296 167:0.0239111 177:1.9702256e-42 #
5.1233413558476783578043978195637 21:0.00104171 31:0.92519099 94:0.91949499 104:0.0067380699 167:0.90510601 177:0.021126401 #
-5.1233413558476783578043978195637 21:0.0126116 31:1.45287 41:0.025316199 84:0.0317729 94:1.459 104:2.33668e-05 127:0 137:0 147:0.031610399 157:0.0062941601 167:1.45289 177:6.0351202e-10 187:0 #
5.1233413558476783578043978195637 21:0.0010277299 31:0.92897302 94:0.923235 104:0.0067658802 167:0.90880299 177:0.021197701 #
-5.1233413558476783578043978195637 21:0.066327699 31:0.105735 41:0.000740227 84:0.0619816 94:0.109989 104:0.00083247502 127:4.8660001e-29 137:0.028216699 147:0.029787701 157:0.034689698 167:0.080108903 177:6.5375198e-29 187:1.74582e-29 #
-5.1233413558476783578043978195637 21:0.0128832 31:1.48355 41:0.025838999 84:0.032398202 94:1.48985 104:1.82193e-05 127:0 137:0 147:0.032271501 157:0.00643253 167:1.48356 177:4.52302e-10 187:0 #
-5.1233413558476783578043978195637 21:0.054516599 31:0.43711701 84:0.043938499 94:0.44053501 104:0.0071601402 127:0.00090789801 137:0.045043401 147:0.0014052 167:0.44427601 177:1.12317e-06 #
5.1233413558476783578043978195637 21:0.00104139 31:0.94218498 94:0.936364 104:0.0068621198 167:0.92172801 177:0.021498401 #
5.1233413558476783578043978195637 21:0.0010650801 31:0.950176 94:0.94432098 104:0.0069201002 167:0.92954803 177:0.0216929 #
5.1233413558476783578043978195637 21:0.00104016 31:0.94620299 94:0.94035202 104:0.0068914699 167:0.92565799 177:0.021585399 #
-0.75803069513997778372527136525605 21:0.0136144 31:1.5677299 41:0.027305 84:0.034235802 94:1.5743999 104:1.91337e-05 127:0 137:0 147:0.034102701 157:0.0067976802 167:1.56775 177:4.82e-10 187:0 #
5.1233413558476783578043978195637 21:0.00189766 31:1.2549599 94:1.24772 104:0.00913266 167:1.22779 177:0.029061001 #
-5.1233413558476783578043978195637 21:0.066945501 31:0.108737 41:0.00132386 84:0.0677021 94:0.108643 104:0.00066188502 127:0 137:0.031961199 147:0.030824799 157:0.035647102 167:0.078573599 177:0 187:0 #
5.1233413558476783578043978195637 21:0.00194439 31:1.34769 94:1.33982 104:0.00980883 167:1.3185 177:0.031130699 #
-5.1233413558476783578043978195637 21:0.067101099 31:0.10899 41:0.00132693 84:0.067859396 94:0.108895 104:0.00066342199 127:0 137:0.032035399 147:0.030896399 157:0.0357299 167:0.078756101 177:0 187:0 #
-5.1233413558476783578043978195637 21:0.066871502 31:0.106604 41:0.000746092 84:0.0624904 94:0.110892 104:0.00083935802 127:0 137:0.028447 147:0.0300321 157:0.034974899 167:0.080768101 177:0 187:0 #
5.1233413558476783578043978195637 21:0.00163271 31:1.27263 94:1.265 104:0.0092655197 167:1.2450401 177:0.0292274 #
5.1233413558476783578043978195637 21:0.00132107 31:1.25278 94:1.24498 104:0.0091251899 167:1.22557 177:0.0285319 #
-5.1233413558476783578043978195637 21:0.066888697 31:0.106632 41:0.00074628298 84:0.0625064 94:0.110921 104:0.00083957298 127:0 137:0.0284543 147:0.0300398 157:0.034983799 167:0.080788702 177:0 187:0 #
-5.1233413558476783578043978195637 21:0.067845799 31:0.108157 41:0.000756961 84:0.063400798 94:0.112508 104:0.000851586 127:0 137:0.0288614 147:0.0304696 157:0.0354844 167:0.081944697 177:0 187:0 #
-5.1233413558476783578043978195637 21:0.067303903 31:0.109319 41:0.0013309499 84:0.068064503 94:0.109224 104:0.000665428 127:0 137:0.032132301 147:0.0309898 157:0.0358379 167:0.0789942 177:0 187:0 #
5.1233413558476783578043978195637 21:0.0023616799 31:0.79440302 94:0.79100001 104:0.00576411 167:0.77739799 177:0.019366501 #
5.1233413558476783578043978195637 21:0.0040443498 31:0.057447501 84:0.023974501 94:0.037517399 104:9.9717098e-36 127:2.760558e-43 137:0.0087167704 147:0.0203951 157:0.0087182904 167:0.023661699 177:8.4498297e-43 #
-5.1233413558476783578043978195637 21:0.067005798 31:0.106818 41:0.00074758899 84:0.062615797 94:0.111115 104:0.00084104302 127:0 137:0.0285041 147:0.0300924 157:0.035045099 167:0.080930203 177:0 187:0 #
-5.1233413558476783578043978195637 21:0.067604698 31:0.107773 41:0.00075427198 84:0.063175499 94:0.112108 104:0.000848561 127:0 137:0.0287589 147:0.030361401 157:0.035358299 167:0.081653602 177:0 187:0 #
5.1158008654601871967315673828125 21:0.0048452001 31:0.068836398 84:0.028727099 94:0.044954501 104:9.5728799e-35 127:9.1350647e-42 137:0.0104444 147:0.0244385 157:0.0104467 167:0.028352 177:1.9000206e-41 #
5.1233413558476783578043978195637 21:0.0040480201 31:0.057500001 84:0.0239964 94:0.037551701 104:1.05314e-35 127:3.2510124e-43 137:0.0087247202 147:0.020413799 157:0.0087262597 167:0.0236833 177:9.9492191e-43 #
-5.1233413558476783578043978195637 21:0.0676388 31:0.109863 41:0.00133757 84:0.068403102 94:0.109768 104:0.00066873903 127:0 137:0.032292198 147:0.031144001 157:0.0360162 167:0.079387203 177:0 187:0 #
-1.7954373924636186643510882277042 21:0.068387397 31:0.109021 41:0.00076300302 84:0.063906901 94:0.113406 104:0.00085838401 127:0 137:0.0290918 147:0.0307128 157:0.035767701 167:0.082598902 177:0 187:0 #
1.700052924172236856747986166738 21:0.0044752099 31:0.063575998 84:0.026531899 94:0.041519299 104:4.7810099e-35 127:3.8143344e-42 137:0.0096463999 147:0.022570901 157:0.0096483398 167:0.0261855 177:7.9341519e-42 #
-5.1233413558476783578043978195637 21:0.067384601 31:0.107422 41:0.00075181603 84:0.062969796 94:0.111743 104:0.000845798 127:0 137:0.0286652 147:0.0302625 157:0.035243198 167:0.081387803 177:0 187:0 #
5.1233413558476783578043978195637 21:0.0043499898 31:0.061790898 84:0.025787 94:0.040353902 104:1.54867e-35 127:4.7924407e-43 137:0.0093757501 147:0.0219371 157:0.0093774498 167:0.0254506 177:1.4643569e-42 #
5.1233413558476783578043978195637 21:0.00177283 31:1.5017 94:1.49254 104:0.0109356 167:1.46912 177:0.0343576 #
-5.1233413558476783578043978195637 21:0.067479298 31:0.107573 41:0.00075287197 84:0.063058302 94:0.1119 104:0.00084698602 127:1.4012985e-45 137:0.0287055 147:0.030305 157:0.0352927 167:0.081502102 177:1.4012985e-45 187:0 #
-5.1233413558476783578043978195637 21:0.067329101 31:0.103705 41:3.6166699e-07 84:0.058237799 94:0.111878 104:0.00091850699 127:0 137:0.0227827 147:0.030679099 157:0.034812901 167:0.082759999 177:0 187:0 #
-5.1233413558476783578043978195637 21:0.067631297 31:0.107816 41:0.00075456803 84:0.063200399 94:0.112152 104:0.00084889401 127:2.6176255e-42 137:0.028770201 147:0.030373299 157:0.035372298 167:0.0816857 177:3.5172591e-42 187:9.3886997e-43 #
5.1233413558476783578043978195637 21:0.0040811398 31:0.057971399 84:0.024193101 94:0.037859499 104:1.23658e-35 127:4.2459343e-43 137:0.0087962197 147:0.0205811 157:0.0087977899 167:0.023877401 177:1.3032076e-42 #
-5.1233413558476783578043978195637 21:0.0677168 31:0.107952 41:0.00075552199 84:0.063280202 94:0.112294 104:0.00084996701 127:0 137:0.0288065 147:0.0304117 157:0.035417002 167:0.081789002 177:0 187:0 #
5.1226982621155912056565284729004 21:0.00838912 31:0.119235 84:0.049758799 94:0.077865601 104:3.6302101e-33 127:8.4440844e-41 137:0.018089799 147:0.0423318 157:0.018095201 167:0.0491076 177:2.4148002e-39 #
-5.1233413558476783578043978195637 21:0.068157896 31:0.108655 41:0.00076044397 84:0.063692503 94:0.113025 104:0.00085550401 127:0 137:0.028994201 147:0.0306098 157:0.035647701 167:0.0823218 177:0 187:0 #
